<?xml version="1.0"?>
<MethodSetup Method="BDT::BDTG">
  <GeneralInfo>
    <Info name="TMVA Release" value="4.1.3 [262403]"/>
    <Info name="ROOT Release" value="5.34/02 [336386]"/>
    <Info name="Creator" value="tim"/>
    <Info name="Date" value="Mon Feb 25 11:43:08 2013"/>
    <Info name="Host" value="Linux tim-Aspire-V3-571G 3.2.0-29-generic #46-Ubuntu SMP Fri Jul 27 17:03:23 UTC 2012 x86_64 x86_64 x86_64 GNU/Linux"/>
    <Info name="Dir" value="/home/tim/Insync/tim@bristow.za.net/Physics PhD/Hbb/MVA/Classification"/>
    <Info name="Training events" value="505871"/>
    <Info name="TrainingTime" value="1.44176326e+02"/>
    <Info name="AnalysisType" value="Classification"/>
  </GeneralInfo>
  <Options>
    <Option name="V" modified="Yes">False</Option>
    <Option name="VerbosityLevel" modified="No">Default</Option>
    <Option name="VarTransform" modified="No">None</Option>
    <Option name="H" modified="Yes">False</Option>
    <Option name="CreateMVAPdfs" modified="No">False</Option>
    <Option name="IgnoreNegWeightsInTraining" modified="No">False</Option>
    <Option name="NTrees" modified="Yes">400</Option>
    <Option name="RenormByClass" modified="No">False</Option>
    <Option name="BoostType" modified="Yes">Grad</Option>
    <Option name="AdaBoostR2Loss" modified="No">quadratic</Option>
    <Option name="UseBaggedGrad" modified="Yes">True</Option>
    <Option name="GradBaggingFraction" modified="Yes">6.000000e-01</Option>
    <Option name="Shrinkage" modified="Yes">5.000000e-01</Option>
    <Option name="AdaBoostBeta" modified="No">1.000000e+00</Option>
    <Option name="UseRandomisedTrees" modified="No">False</Option>
    <Option name="UseNvars" modified="No">4</Option>
    <Option name="UsePoissonNvars" modified="No">True</Option>
    <Option name="UseNTrainEvents" modified="No">505871</Option>
    <Option name="UseWeightedTrees" modified="No">True</Option>
    <Option name="UseYesNoLeaf" modified="No">True</Option>
    <Option name="NodePurityLimit" modified="No">5.000000e-01</Option>
    <Option name="SeparationType" modified="No">giniindex</Option>
    <Option name="nEventsMin" modified="No">258</Option>
    <Option name="nCuts" modified="Yes">20</Option>
    <Option name="UseFisherCuts" modified="No">False</Option>
    <Option name="MinLinCorrForFisher" modified="No">8.000000e-01</Option>
    <Option name="UseExclusiveVars" modified="No">False</Option>
    <Option name="PruneStrength" modified="No">0.000000e+00</Option>
    <Option name="PruneMethod" modified="No">nopruning</Option>
    <Option name="PruneBeforeBoost" modified="No">False</Option>
    <Option name="PruningValFraction" modified="No">5.000000e-01</Option>
    <Option name="NNodesMax" modified="Yes">5</Option>
    <Option name="MaxDepth" modified="No">3</Option>
    <Option name="DoBoostMonitor" modified="No">False</Option>
    <Option name="NegWeightTreatment" modified="No">ignorenegweights</Option>
  </Options>
  <Variables NVar="14">
    <Variable VarIndex="0" Expression="dRBB" Label="dRBB" Title="dRBB" Unit="dR(bb)" Internal="dRBB" Type="F" Min="7.00020432e-01" Max="5.67438745e+00"/>
    <Variable VarIndex="1" Expression="dEtaBB" Label="dEtaBB" Title="dEtaBB" Unit="dEta(bb)" Internal="dEtaBB" Type="F" Min="2.77906656e-06" Max="4.84289026e+00"/>
    <Variable VarIndex="2" Expression="dPhiVBB" Label="dPhiVBB" Title="dPhiVBB" Unit="dPhi(V,bb)" Internal="dPhiVBB" Type="F" Min="1.09999710e-05" Max="3.14159179e+00"/>
    <Variable VarIndex="3" Expression="dPhiLMET" Label="dPhiLMET" Title="dPhiLMET" Unit="dPhi(l,MET)" Internal="dPhiLMET" Type="F" Min="6.46874249e-01" Max="3.14159155e+00"/>
    <Variable VarIndex="4" Expression="dPhiLBMin" Label="dPhiLBMin" Title="dPhiLBMin" Unit="min dPhi(l,b)" Internal="dPhiLBMin" Type="F" Min="1.19209290e-06" Max="3.13114572e+00"/>
    <Variable VarIndex="5" Expression="pTV" Label="pTV" Title="pTV" Unit="pT(V)" Internal="pTV" Type="F" Min="3.67884375e-02" Max="1.19999924e+02"/>
    <Variable VarIndex="6" Expression="mBB" Label="mBB" Title="mBB" Unit="mbb" Internal="mBB" Type="F" Min="-1.08684555e+02" Max="2.35488306e+03"/>
    <Variable VarIndex="7" Expression="HT" Label="HT" Title="HT" Unit="HT" Internal="HT" Type="F" Min="2.67114353e+01" Max="5.54571436e+03"/>
    <Variable VarIndex="8" Expression="pTB1" Label="pTB1" Title="pTB1" Unit="pT(b1)" Internal="pTB1" Type="F" Min="4.50001869e+01" Max="7.23101135e+02"/>
    <Variable VarIndex="9" Expression="pTB2" Label="pTB2" Title="pTB2" Unit="pT(b2)" Internal="pTB2" Type="F" Min="2.50000668e+01" Max="6.14753479e+02"/>
    <Variable VarIndex="10" Expression="pTimbVH" Label="pTimbVH" Title="pTimbVH" Unit="pT imbalance VH" Internal="pTimbVH" Type="F" Min="-9.96984661e-01" Max="9.99008119e-01"/>
    <Variable VarIndex="11" Expression="mTW" Label="mTW" Title="mTW" Unit="mT(W)" Internal="mTW" Type="F" Min="4.00004158e+01" Max="7.93866394e+02"/>
    <Variable VarIndex="12" Expression="pTL" Label="pTL" Title="pTL" Unit="pT(l)" Internal="pTL" Type="F" Min="2.50002193e+01" Max="4.30885742e+02"/>
    <Variable VarIndex="13" Expression="MET" Label="MET" Title="MET" Unit="MET" Internal="MET" Type="F" Min="2.50000248e+01" Max="3.73139648e+02"/>
  </Variables>
  <Spectators NSpec="0"/>
  <Classes NClass="2">
    <Class Name="Signal" Index="0"/>
    <Class Name="Background" Index="1"/>
  </Classes>
  <Transformations NTransformations="0"/>
  <MVAPdfs/>
  <Weights NTrees="400" AnalysisType="1">
    <BinaryTree type="DecisionTree" boostWeight="1.0000000000000000e+00" itree="0">
      <Node pos="s" depth="0" NCoef="0" IVar="6" Cut="1.2594093322753906e+02" cType="1" res="6.6827796399593353e-04" rms="4.9999955296516418e-01" purity="5.0066828727722168e-01" nType="0">
        <Node pos="l" depth="1" NCoef="0" IVar="-1" Cut="0.0000000000000000e+00" cType="1" res="2.3386859893798828e-01" rms="4.7576931118965149e-01" purity="6.5376460552215576e-01" nType="-99"/>
        <Node pos="r" depth="1" NCoef="0" IVar="6" Cut="2.3208190917968750e+02" cType="1" res="-2.4897427856922150e-01" rms="4.3360328674316406e-01" purity="2.5102570652961731e-01" nType="0">
          <Node pos="l" depth="2" NCoef="0" IVar="-1" Cut="0.0000000000000000e+00" cType="1" res="-5.7411366701126099e-01" rms="4.6449828147888184e-01" purity="3.1495583057403564e-01" nType="-99"/>
          <Node pos="r" depth="2" NCoef="0" IVar="-1" Cut="0.0000000000000000e+00" cType="1" res="-1.2457391738891602e+01" rms="1.6349537670612335e-01" purity="2.7486231178045273e-02" nType="-99"/>
        </Node>
      </Node>
    </BinaryTree>
    <BinaryTree type="DecisionTree" boostWeight="1.0000000000000000e+00" itree="1">
      <Node pos="s" depth="0" NCoef="0" IVar="0" Cut="1.6475188732147217e+00" cType="0" res="4.6564530581235886e-02" rms="4.5554238557815552e-01" purity="4.9804207682609558e-01" nType="0">
        <Node pos="l" depth="1" NCoef="0" IVar="-1" Cut="0.0000000000000000e+00" cType="1" res="2.0979805290699005e-01" rms="4.2759081721305847e-01" purity="5.2855813503265381e-01" nType="-99"/>
        <Node pos="r" depth="1" NCoef="0" IVar="6" Cut="9.8464607238769531e+01" cType="0" res="-2.6777642965316772e-01" rms="4.8524406552314758e-01" purity="3.2036781311035156e-01" nType="0">
          <Node pos="l" depth="2" NCoef="0" IVar="-1" Cut="0.0000000000000000e+00" cType="1" res="1.1471418291330338e-01" rms="4.9914705753326416e-01" purity="5.8509355783462524e-01" nType="-99"/>
          <Node pos="r" depth="2" NCoef="0" IVar="-1" Cut="0.0000000000000000e+00" cType="1" res="-1.9524053335189819e+00" rms="4.0750548243522644e-01" purity="2.1027725934982300e-01" nType="-99"/>
        </Node>
      </Node>
    </BinaryTree>
    <BinaryTree type="DecisionTree" boostWeight="1.0000000000000000e+00" itree="2">
      <Node pos="s" depth="0" NCoef="0" IVar="6" Cut="1.5803063964843750e+02" cType="1" res="3.9311539381742477e-02" rms="4.3325641751289368e-01" purity="5.0108426809310913e-01" nType="0">
        <Node pos="l" depth="1" NCoef="0" IVar="-1" Cut="0.0000000000000000e+00" cType="1" res="1.7696520686149597e-01" rms="4.5694512128829956e-01" purity="6.2030798196792603e-01" nType="-99"/>
        <Node pos="r" depth="1" NCoef="0" IVar="6" Cut="2.6264328002929688e+02" cType="1" res="-1.5221312642097473e-01" rms="2.4445018172264099e-01" purity="3.8502171635627747e-02" nType="0">
          <Node pos="l" depth="2" NCoef="0" IVar="-1" Cut="0.0000000000000000e+00" cType="1" res="-5.5261259078979492e+00" rms="2.3231774568557739e-01" purity="4.2328789830207825e-02" nType="-99"/>
          <Node pos="r" depth="2" NCoef="0" IVar="-1" Cut="0.0000000000000000e+00" cType="1" res="3.0199072768000000e+10" rms="1.6774059832096100e-01" purity="2.8976548463106155e-02" nType="-99"/>
        </Node>
      </Node>
    </BinaryTree>
    <BinaryTree type="DecisionTree" boostWeight="1.0000000000000000e+00" itree="3">
      <Node pos="s" depth="0" NCoef="0" IVar="6" Cut="3.0508474731445312e+02" cType="1" res="-3.1159954145550728e-02" rms="4.7949385643005371e-01" purity="5.0007414817810059e-01" nType="0">
        <Node pos="l" depth="1" NCoef="0" IVar="-1" Cut="0.0000000000000000e+00" cType="1" res="9.9079562351107597e-03" rms="4.5104470849037170e-01" purity="5.1751607656478882e-01" nType="-99"/>
        <Node pos="r" depth="1" NCoef="0" IVar="4" Cut="1.3103920221328735e+00" cType="0" res="-9.6972531080245972e-01" rms="1.7134220898151398e-01" purity="3.0274711549282074e-02" nType="0">
          <Node pos="l" depth="2" NCoef="0" IVar="-1" Cut="0.0000000000000000e+00" cType="1" res="-1.0822577154425393e+31" rms="3.0466344952583313e-01" purity="1.0354045033454895e-01" nType="-99"/>
          <Node pos="r" depth="2" NCoef="0" IVar="-1" Cut="0.0000000000000000e+00" cType="1" res="-4.5231446956333834e+31" rms="1.0398969799280167e-01" purity="1.0933396406471729e-02" nType="-99"/>
        </Node>
      </Node>
    </BinaryTree>
    <BinaryTree type="DecisionTree" boostWeight="1.0000000000000000e+00" itree="4">
      <Node pos="s" depth="0" NCoef="0" IVar="2" Cut="2.3935964107513428e+00" cType="0" res="3.5277153365314007e-03" rms="4.4237005710601807e-01" purity="5.0465488433837891e-01" nType="0">
        <Node pos="l" depth="1" NCoef="0" IVar="-1" Cut="0.0000000000000000e+00" cType="1" res="1.6803127527236938e-01" rms="4.2498081922531128e-01" purity="6.0554516315460205e-01" nType="-99"/>
        <Node pos="r" depth="1" NCoef="0" IVar="5" Cut="3.4311939239501953e+01" cType="1" res="-9.7731836140155792e-02" rms="4.4809246063232422e-01" purity="3.5556745529174805e-01" nType="0">
          <Node pos="l" depth="2" NCoef="0" IVar="-1" Cut="0.0000000000000000e+00" cType="1" res="-1.5801364555954933e-02" rms="4.2986479401588440e-01" purity="5.0338321924209595e-01" nType="-99"/>
          <Node pos="r" depth="2" NCoef="0" IVar="-1" Cut="0.0000000000000000e+00" cType="1" res="-6.4451366662979126e-01" rms="4.4994699954986572e-01" purity="2.9542502760887146e-01" nType="-99"/>
        </Node>
      </Node>
    </BinaryTree>
    <BinaryTree type="DecisionTree" boostWeight="1.0000000000000000e+00" itree="5">
      <Node pos="s" depth="0" NCoef="0" IVar="6" Cut="2.4325367736816406e+02" cType="1" res="2.3930853232741356e-02" rms="4.3297341465950012e-01" purity="4.9998468160629272e-01" nType="0">
        <Node pos="l" depth="1" NCoef="0" IVar="-1" Cut="0.0000000000000000e+00" cType="1" res="1.3281473517417908e-01" rms="4.1855689883232117e-01" purity="5.3803354501724243e-01" nType="-99"/>
        <Node pos="r" depth="1" NCoef="0" IVar="6" Cut="3.4381048583984375e+02" cType="0" res="-2.8686103224754333e-01" rms="4.8826971650123596e-01" purity="1.9032498821616173e-02" nType="0">
          <Node pos="l" depth="2" NCoef="0" IVar="-1" Cut="0.0000000000000000e+00" cType="1" res="1.2499999810304009e+30" rms="1.8003989756107330e-01" purity="3.3539246767759323e-02" nType="-99"/>
          <Node pos="r" depth="2" NCoef="0" IVar="-1" Cut="0.0000000000000000e+00" cType="1" res="-1.0527918325235712e+17" rms="5.1402699947357178e-01" purity="1.2353447265923023e-02" nType="-99"/>
        </Node>
      </Node>
    </BinaryTree>
    <BinaryTree type="DecisionTree" boostWeight="1.0000000000000000e+00" itree="6">
      <Node pos="s" depth="0" NCoef="0" IVar="7" Cut="2.4705209350585938e+02" cType="1" res="1.2360434979200363e-02" rms="4.0290895104408264e-01" purity="5.0297641754150391e-01" nType="0">
        <Node pos="l" depth="1" NCoef="0" IVar="-1" Cut="0.0000000000000000e+00" cType="1" res="1.1321497708559036e-01" rms="3.9875894784927368e-01" purity="5.7576096057891846e-01" nType="-99"/>
        <Node pos="r" depth="1" NCoef="0" IVar="8" Cut="7.7291603088378906e+01" cType="1" res="-5.4809104651212692e-02" rms="4.0512540936470032e-01" purity="3.2477477192878723e-01" nType="0">
          <Node pos="l" depth="2" NCoef="0" IVar="-1" Cut="0.0000000000000000e+00" cType="1" res="-4.3917930126190186e-01" rms="4.5008474588394165e-01" purity="3.9531514048576355e-01" nType="-99"/>
          <Node pos="r" depth="2" NCoef="0" IVar="-1" Cut="0.0000000000000000e+00" cType="1" res="-1.0240316390991211e-01" rms="3.6954042315483093e-01" purity="2.8044646978378296e-01" nType="-99"/>
        </Node>
      </Node>
    </BinaryTree>
    <BinaryTree type="DecisionTree" boostWeight="1.0000000000000000e+00" itree="7">
      <Node pos="s" depth="0" NCoef="0" IVar="0" Cut="1.6290798187255859e+00" cType="0" res="8.2899956032633781e-03" rms="3.9936318993568420e-01" purity="4.9914425611495972e-01" nType="0">
        <Node pos="l" depth="1" NCoef="0" IVar="-1" Cut="0.0000000000000000e+00" cType="1" res="-2.6994196698069572e-02" rms="3.8645750284194946e-01" purity="5.2795922756195068e-01" nType="-99"/>
        <Node pos="r" depth="1" NCoef="0" IVar="6" Cut="9.4982521057128906e+01" cType="0" res="1.0981437563896179e-01" rms="4.5655620098114014e-01" purity="3.2589912414550781e-01" nType="0">
          <Node pos="l" depth="2" NCoef="0" IVar="-1" Cut="0.0000000000000000e+00" cType="1" res="-6.0393348336219788e-02" rms="5.2251023054122925e-01" purity="5.5255496501922607e-01" nType="-99"/>
          <Node pos="r" depth="2" NCoef="0" IVar="-1" Cut="0.0000000000000000e+00" cType="1" res="2.5463974475860596e+00" rms="4.1207009553909302e-01" purity="2.2747635841369629e-01" nType="-99"/>
        </Node>
      </Node>
    </BinaryTree>
    <BinaryTree type="DecisionTree" boostWeight="1.0000000000000000e+00" itree="8">
      <Node pos="s" depth="0" NCoef="0" IVar="0" Cut="1.4106442928314209e+00" cType="0" res="-6.1562169343233109e-02" rms="4.4216701388359070e-01" purity="5.0007396936416626e-01" nType="0">
        <Node pos="l" depth="1" NCoef="0" IVar="-1" Cut="0.0000000000000000e+00" cType="1" res="-3.8312423974275589e-02" rms="4.0643456578254700e-01" purity="5.2584958076477051e-01" nType="-99"/>
        <Node pos="r" depth="1" NCoef="0" IVar="6" Cut="9.3169181823730469e+01" cType="0" res="-5.6104820966720581e-01" rms="4.7757667303085327e-01" purity="2.3934914171695709e-01" nType="0">
          <Node pos="l" depth="2" NCoef="0" IVar="-1" Cut="0.0000000000000000e+00" cType="1" res="-1.1444844305515289e-01" rms="4.9848872423171997e-01" purity="5.4979032278060913e-01" nType="-99"/>
          <Node pos="r" depth="2" NCoef="0" IVar="-1" Cut="0.0000000000000000e+00" cType="1" res="-1.2902408599853516e+01" rms="3.6100080609321594e-01" purity="1.5534132719039917e-01" nType="-99"/>
        </Node>
      </Node>
    </BinaryTree>
    <BinaryTree type="DecisionTree" boostWeight="1.0000000000000000e+00" itree="9">
      <Node pos="s" depth="0" NCoef="0" IVar="0" Cut="2.1212682723999023e+00" cType="0" res="5.2009494975209236e-03" rms="4.0666818618774414e-01" purity="4.9415090680122375e-01" nType="0">
        <Node pos="l" depth="1" NCoef="0" IVar="-1" Cut="0.0000000000000000e+00" cType="1" res="1.1756826937198639e-01" rms="3.6672806739807129e-01" purity="5.1115888357162476e-01" nType="-99"/>
        <Node pos="r" depth="1" NCoef="0" IVar="0" Cut="1.4444830417633057e+00" cType="0" res="-6.3796877861022949e-02" rms="4.7166636586189270e-01" purity="4.5883297920227051e-01" nType="0">
          <Node pos="l" depth="2" NCoef="0" IVar="-1" Cut="0.0000000000000000e+00" cType="1" res="-3.8735127449035645e-01" rms="4.7583383321762085e-01" purity="5.4859805107116699e-01" nType="-99"/>
          <Node pos="r" depth="2" NCoef="0" IVar="-1" Cut="0.0000000000000000e+00" cType="1" res="9.2721468210220337e-01" rms="4.2602419853210449e-01" purity="2.4932508170604706e-01" nType="-99"/>
        </Node>
      </Node>
    </BinaryTree>
    <BinaryTree type="DecisionTree" boostWeight="1.0000000000000000e+00" itree="10">
      <Node pos="s" depth="0" NCoef="0" IVar="10" Cut="3.3367720246315002e-01" cType="1" res="1.2640292756259441e-02" rms="4.0628772974014282e-01" purity="4.9432361125946045e-01" nType="0">
        <Node pos="l" depth="1" NCoef="0" IVar="-1" Cut="0.0000000000000000e+00" cType="1" res="8.7883338332176208e-02" rms="4.0347850322723389e-01" purity="5.2846109867095947e-01" nType="-99"/>
        <Node pos="r" depth="1" NCoef="0" IVar="6" Cut="1.5888146972656250e+02" cType="1" res="-6.7795000970363617e-02" rms="4.1074123978614807e-01" purity="3.2325360178947449e-01" nType="0">
          <Node pos="l" depth="2" NCoef="0" IVar="-1" Cut="0.0000000000000000e+00" cType="1" res="-4.0277627110481262e-01" rms="4.7084933519363403e-01" purity="4.4154986739158630e-01" nType="-99"/>
          <Node pos="r" depth="2" NCoef="0" IVar="-1" Cut="0.0000000000000000e+00" cType="1" res="2.3765308593750000e+04" rms="1.5092755854129791e-01" purity="2.3323191329836845e-02" nType="-99"/>
        </Node>
      </Node>
    </BinaryTree>
    <BinaryTree type="DecisionTree" boostWeight="1.0000000000000000e+00" itree="11">
      <Node pos="s" depth="0" NCoef="0" IVar="10" Cut="3.3420363068580627e-01" cType="1" res="-1.7809858545660973e-02" rms="4.3453159928321838e-01" purity="4.9942424893379211e-01" nType="0">
        <Node pos="l" depth="1" NCoef="0" IVar="-1" Cut="0.0000000000000000e+00" cType="1" res="2.1837053820490837e-02" rms="4.0078449249267578e-01" purity="5.3221958875656128e-01" nType="-99"/>
        <Node pos="r" depth="1" NCoef="0" IVar="6" Cut="1.3543127441406250e+02" cType="1" res="-1.4007689058780670e-01" rms="5.5796861648559570e-01" purity="3.3601364493370056e-01" nType="0">
          <Node pos="l" depth="2" NCoef="0" IVar="-1" Cut="0.0000000000000000e+00" cType="1" res="1.1506575345993042e-01" rms="4.7649565339088440e-01" purity="4.9062046408653259e-01" nType="-99"/>
          <Node pos="r" depth="2" NCoef="0" IVar="-1" Cut="0.0000000000000000e+00" cType="1" res="-1.0985971450805664e+01" rms="5.5534332990646362e-01" purity="8.5192516446113586e-02" nType="-99"/>
        </Node>
      </Node>
    </BinaryTree>
    <BinaryTree type="DecisionTree" boostWeight="1.0000000000000000e+00" itree="12">
      <Node pos="s" depth="0" NCoef="0" IVar="10" Cut="3.3367720246315002e-01" cType="1" res="-2.3450218141078949e-02" rms="4.3360179662704468e-01" purity="4.9748840928077698e-01" nType="0">
        <Node pos="l" depth="1" NCoef="0" IVar="-1" Cut="0.0000000000000000e+00" cType="1" res="6.8859122693538666e-03" rms="4.0013480186462402e-01" purity="5.3261870145797729e-01" nType="-99"/>
        <Node pos="r" depth="1" NCoef="0" IVar="6" Cut="1.5888146972656250e+02" cType="1" res="-1.5454287827014923e-01" rms="5.5741167068481445e-01" purity="3.1715700030326843e-01" nType="0">
          <Node pos="l" depth="2" NCoef="0" IVar="-1" Cut="0.0000000000000000e+00" cType="1" res="7.6157733798027039e-02" rms="4.7447675466537476e-01" purity="4.3427914381027222e-01" nType="-99"/>
          <Node pos="r" depth="2" NCoef="0" IVar="-1" Cut="0.0000000000000000e+00" cType="1" res="-4.4360938159255567e+31" rms="5.0443756580352783e-01" purity="2.3455800488591194e-02" nType="-99"/>
        </Node>
      </Node>
    </BinaryTree>
    <BinaryTree type="DecisionTree" boostWeight="1.0000000000000000e+00" itree="13">
      <Node pos="s" depth="0" NCoef="0" IVar="8" Cut="7.7291725158691406e+01" cType="1" res="2.3119084071367979e-03" rms="3.9913865923881531e-01" purity="5.0074088573455811e-01" nType="0">
        <Node pos="l" depth="1" NCoef="0" IVar="-1" Cut="0.0000000000000000e+00" cType="1" res="-5.8265831321477890e-02" rms="4.2628055810928345e-01" purity="6.0147017240524292e-01" nType="-99"/>
        <Node pos="r" depth="1" NCoef="0" IVar="4" Cut="1.9328908920288086e+00" cType="0" res="2.3585032671689987e-02" rms="3.6994048953056335e-01" purity="4.0392833948135376e-01" nType="0">
          <Node pos="l" depth="2" NCoef="0" IVar="-1" Cut="0.0000000000000000e+00" cType="1" res="2.5823932886123657e-01" rms="4.3889361619949341e-01" purity="5.6391406059265137e-01" nType="-99"/>
          <Node pos="r" depth="2" NCoef="0" IVar="-1" Cut="0.0000000000000000e+00" cType="1" res="6.2363147735595703e-02" rms="3.5722324252128601e-01" purity="3.7935930490493774e-01" nType="-99"/>
        </Node>
      </Node>
    </BinaryTree>
    <BinaryTree type="DecisionTree" boostWeight="1.0000000000000000e+00" itree="14">
      <Node pos="s" depth="0" NCoef="0" IVar="0" Cut="1.3898138999938965e+00" cType="0" res="4.0373033843934536e-03" rms="4.0425661206245422e-01" purity="4.9972638487815857e-01" nType="0">
        <Node pos="l" depth="1" NCoef="0" IVar="-1" Cut="0.0000000000000000e+00" cType="1" res="-1.1126115918159485e-02" rms="4.0161120891571045e-01" purity="5.2431595325469971e-01" nType="-99"/>
        <Node pos="r" depth="1" NCoef="0" IVar="6" Cut="8.7100120544433594e+01" cType="0" res="8.2240849733352661e-02" rms="4.2315879464149475e-01" purity="2.4205403029918671e-01" nType="0">
          <Node pos="l" depth="2" NCoef="0" IVar="-1" Cut="0.0000000000000000e+00" cType="1" res="-4.7925889492034912e-01" rms="5.6077647209167480e-01" purity="5.3285467624664307e-01" nType="-99"/>
          <Node pos="r" depth="2" NCoef="0" IVar="-1" Cut="0.0000000000000000e+00" cType="1" res="8.0616616960000000e+09" rms="3.4470498561859131e-01" purity="1.3781431317329407e-01" nType="-99"/>
        </Node>
      </Node>
    </BinaryTree>
    <BinaryTree type="DecisionTree" boostWeight="1.0000000000000000e+00" itree="15">
      <Node pos="s" depth="0" NCoef="0" IVar="6" Cut="8.3844169616699219e+01" cType="0" res="-5.6244280189275742e-02" rms="4.5475593209266663e-01" purity="4.9827942252159119e-01" nType="0">
        <Node pos="l" depth="1" NCoef="0" IVar="-1" Cut="0.0000000000000000e+00" cType="1" res="2.8046099469065666e-02" rms="3.9681202173233032e-01" purity="5.2448457479476929e-01" nType="-99"/>
        <Node pos="r" depth="1" NCoef="0" IVar="0" Cut="1.3312907218933105e+00" cType="0" res="-5.2678596973419189e-01" rms="5.5923086404800415e-01" purity="3.0822014808654785e-01" nType="0">
          <Node pos="l" depth="2" NCoef="0" IVar="-1" Cut="0.0000000000000000e+00" cType="1" res="-7.8146123886108398e-01" rms="5.3619050979614258e-01" purity="4.7743973135948181e-01" nType="-99"/>
          <Node pos="r" depth="2" NCoef="0" IVar="-1" Cut="0.0000000000000000e+00" cType="1" res="-7.9667162164992637e+31" rms="3.1168872117996216e-01" purity="1.0903947055339813e-01" nType="-99"/>
        </Node>
      </Node>
    </BinaryTree>
    <BinaryTree type="DecisionTree" boostWeight="1.0000000000000000e+00" itree="16">
      <Node pos="s" depth="0" NCoef="0" IVar="6" Cut="1.2594093322753906e+02" cType="1" res="9.4992155209183693e-03" rms="4.0285778045654297e-01" purity="5.0155359506607056e-01" nType="0">
        <Node pos="l" depth="1" NCoef="0" IVar="-1" Cut="0.0000000000000000e+00" cType="1" res="-3.6865431815385818e-02" rms="4.2774257063865662e-01" purity="6.5505754947662354e-01" nType="-99"/>
        <Node pos="r" depth="1" NCoef="0" IVar="0" Cut="2.1318755149841309e+00" cType="1" res="4.5973744243383408e-02" rms="3.5550054907798767e-01" purity="2.5076234340667725e-01" nType="0">
          <Node pos="l" depth="2" NCoef="0" IVar="-1" Cut="0.0000000000000000e+00" cType="1" res="4.8870348930358887e-01" rms="4.3119832873344421e-01" purity="4.0539464354515076e-01" nType="-99"/>
          <Node pos="r" depth="2" NCoef="0" IVar="-1" Cut="0.0000000000000000e+00" cType="1" res="1.6055910289287567e-01" rms="3.3807119727134705e-01" purity="2.2567771375179291e-01" nType="-99"/>
        </Node>
      </Node>
    </BinaryTree>
    <BinaryTree type="DecisionTree" boostWeight="1.0000000000000000e+00" itree="17">
      <Node pos="s" depth="0" NCoef="0" IVar="1" Cut="9.2103981971740723e-01" cType="1" res="8.2278309855610132e-04" rms="4.0212342143058777e-01" purity="5.0195616483688354e-01" nType="0">
        <Node pos="l" depth="1" NCoef="0" IVar="-1" Cut="0.0000000000000000e+00" cType="1" res="5.2320383489131927e-02" rms="4.1473016142845154e-01" purity="5.6333851814270020e-01" nType="-99"/>
        <Node pos="r" depth="1" NCoef="0" IVar="0" Cut="2.6955401897430420e+00" cType="1" res="-2.3467881605029106e-02" rms="3.8110435009002686e-01" purity="4.0968361496925354e-01" nType="0">
          <Node pos="l" depth="2" NCoef="0" IVar="-1" Cut="0.0000000000000000e+00" cType="1" res="-1.7514891922473907e-01" rms="4.3415537476539612e-01" purity="4.7505164146423340e-01" nType="-99"/>
          <Node pos="r" depth="2" NCoef="0" IVar="-1" Cut="0.0000000000000000e+00" cType="1" res="3.3505439758300781e-02" rms="3.0731400847434998e-01" purity="3.3544456958770752e-01" nType="-99"/>
        </Node>
      </Node>
    </BinaryTree>
    <BinaryTree type="DecisionTree" boostWeight="1.0000000000000000e+00" itree="18">
      <Node pos="s" depth="0" NCoef="0" IVar="7" Cut="2.8815386962890625e+02" cType="1" res="3.9831001777201891e-04" rms="4.0111392736434937e-01" purity="4.9842005968093872e-01" nType="0">
        <Node pos="l" depth="1" NCoef="0" IVar="-1" Cut="0.0000000000000000e+00" cType="1" res="2.9591167345643044e-02" rms="4.0067216753959656e-01" purity="5.6120973825454712e-01" nType="-99"/>
        <Node pos="r" depth="1" NCoef="0" IVar="4" Cut="2.5338082313537598e+00" cType="0" res="-3.3715888857841492e-02" rms="4.0096330642700195e-01" purity="2.5934749841690063e-01" nType="0">
          <Node pos="l" depth="2" NCoef="0" IVar="-1" Cut="0.0000000000000000e+00" cType="1" res="6.8101829290390015e-01" rms="4.9288117885589600e-01" purity="4.0712374448776245e-01" nType="-99"/>
          <Node pos="r" depth="2" NCoef="0" IVar="-1" Cut="0.0000000000000000e+00" cType="1" res="-2.1013762056827545e-01" rms="3.9682763814926147e-01" purity="2.5516292452812195e-01" nType="-99"/>
        </Node>
      </Node>
    </BinaryTree>
    <BinaryTree type="DecisionTree" boostWeight="1.0000000000000000e+00" itree="19">
      <Node pos="s" depth="0" NCoef="0" IVar="5" Cut="1.1470819473266602e+01" cType="1" res="4.6117175370454788e-03" rms="4.0136843919754028e-01" purity="4.9795967340469360e-01" nType="0">
        <Node pos="l" depth="1" NCoef="0" IVar="-1" Cut="0.0000000000000000e+00" cType="1" res="2.7027451992034912e-01" rms="3.8367828726768494e-01" purity="5.9577125310897827e-01" nType="-99"/>
        <Node pos="r" depth="1" NCoef="0" IVar="4" Cut="1.1928280591964722e+00" cType="0" res="1.8197391182184219e-03" rms="4.0155887603759766e-01" purity="4.9500826001167297e-01" nType="0">
          <Node pos="l" depth="2" NCoef="0" IVar="-1" Cut="0.0000000000000000e+00" cType="1" res="5.6070063263177872e-02" rms="4.2254909873008728e-01" purity="5.3353804349899292e-01" nType="-99"/>
          <Node pos="r" depth="2" NCoef="0" IVar="-1" Cut="0.0000000000000000e+00" cType="1" res="-4.9500517547130585e-02" rms="3.7986838817596436e-01" purity="4.5824638009071350e-01" nType="-99"/>
        </Node>
      </Node>
    </BinaryTree>
    <BinaryTree type="DecisionTree" boostWeight="1.0000000000000000e+00" itree="20">
      <Node pos="s" depth="0" NCoef="0" IVar="8" Cut="7.7290710449218750e+01" cType="1" res="2.6565226726233959e-03" rms="3.9945095777511597e-01" purity="5.0196307897567749e-01" nType="0">
        <Node pos="l" depth="1" NCoef="0" IVar="-1" Cut="0.0000000000000000e+00" cType="1" res="5.4316855967044830e-02" rms="4.2627429962158203e-01" purity="6.0795658826828003e-01" nType="-99"/>
        <Node pos="r" depth="1" NCoef="0" IVar="8" Cut="1.0804405212402344e+02" cType="1" res="-1.3844581320881844e-02" rms="3.7030094861984253e-01" purity="3.9720526337623596e-01" nType="0">
          <Node pos="l" depth="2" NCoef="0" IVar="-1" Cut="0.0000000000000000e+00" cType="1" res="-1.4056818187236786e-01" rms="3.9546602964401245e-01" purity="4.8481613397598267e-01" nType="-99"/>
          <Node pos="r" depth="2" NCoef="0" IVar="-1" Cut="0.0000000000000000e+00" cType="1" res="1.6899915039539337e-01" rms="3.2150629162788391e-01" purity="2.5348874926567078e-01" nType="-99"/>
        </Node>
      </Node>
    </BinaryTree>
    <BinaryTree type="DecisionTree" boostWeight="1.0000000000000000e+00" itree="21">
      <Node pos="s" depth="0" NCoef="0" IVar="10" Cut="5.1171652972698212e-02" cType="1" res="1.2248575221747160e-03" rms="3.9591237902641296e-01" purity="5.0344806909561157e-01" nType="0">
        <Node pos="l" depth="1" NCoef="0" IVar="-1" Cut="0.0000000000000000e+00" cType="1" res="4.7375272959470749e-02" rms="3.8920781016349792e-01" purity="5.7580554485321045e-01" nType="-99"/>
        <Node pos="r" depth="1" NCoef="0" IVar="0" Cut="2.4842426776885986e+00" cType="1" res="-1.6279526054859161e-02" rms="4.0335574746131897e-01" purity="4.1404873132705688e-01" nType="0">
          <Node pos="l" depth="2" NCoef="0" IVar="-1" Cut="0.0000000000000000e+00" cType="1" res="-1.4285466074943542e-01" rms="4.4422560930252075e-01" purity="4.1459032893180847e-01" nType="-99"/>
          <Node pos="r" depth="2" NCoef="0" IVar="-1" Cut="0.0000000000000000e+00" cType="1" res="8.1159830093383789e-02" rms="3.1869423389434814e-01" purity="4.1311955451965332e-01" nType="-99"/>
        </Node>
      </Node>
    </BinaryTree>
    <BinaryTree type="DecisionTree" boostWeight="1.0000000000000000e+00" itree="22">
      <Node pos="s" depth="0" NCoef="0" IVar="2" Cut="2.9919939041137695e+00" cType="0" res="1.2050732038915157e-03" rms="3.9684596657752991e-01" purity="4.9851885437965393e-01" nType="0">
        <Node pos="l" depth="1" NCoef="0" IVar="-1" Cut="0.0000000000000000e+00" cType="1" res="9.4591766595840454e-02" rms="3.8700717687606812e-01" purity="6.5409076213836670e-01" nType="-99"/>
        <Node pos="r" depth="1" NCoef="0" IVar="6" Cut="1.6521575927734375e+02" cType="1" res="-5.7801706716418266e-03" rms="3.9869379997253418e-01" purity="4.6350747346878052e-01" nType="0">
          <Node pos="l" depth="2" NCoef="0" IVar="-1" Cut="0.0000000000000000e+00" cType="1" res="-4.2518459260463715e-02" rms="4.3836456537246704e-01" purity="5.7406103610992432e-01" nType="-99"/>
          <Node pos="r" depth="2" NCoef="0" IVar="-1" Cut="0.0000000000000000e+00" cType="1" res="1.5993777343750000e+04" rms="1.6298960149288177e-01" purity="2.7311759069561958e-02" nType="-99"/>
        </Node>
      </Node>
    </BinaryTree>
    <BinaryTree type="DecisionTree" boostWeight="1.0000000000000000e+00" itree="23">
      <Node pos="s" depth="0" NCoef="0" IVar="6" Cut="1.5803063964843750e+02" cType="1" res="-6.8911865353584290e-02" rms="4.7561401128768921e-01" purity="4.9790060520172119e-01" nType="0">
        <Node pos="l" depth="1" NCoef="0" IVar="-1" Cut="0.0000000000000000e+00" cType="1" res="4.4421274214982986e-03" rms="4.3836078047752380e-01" purity="6.1825728416442871e-01" nType="-99"/>
        <Node pos="r" depth="1" NCoef="0" IVar="6" Cut="2.6264297485351562e+02" cType="1" res="-3.4184101223945618e-01" rms="5.1414388418197632e-01" purity="3.1793259084224701e-02" nType="0">
          <Node pos="l" depth="2" NCoef="0" IVar="-1" Cut="0.0000000000000000e+00" cType="1" res="-1.5938845312500000e+05" rms="5.4229444265365601e-01" purity="3.9108064025640488e-02" nType="-99"/>
          <Node pos="r" depth="2" NCoef="0" IVar="-1" Cut="0.0000000000000000e+00" cType="1" res="1.2499999810304009e+30" rms="1.1470697820186615e-01" purity="1.3335527852177620e-02" nType="-99"/>
        </Node>
      </Node>
    </BinaryTree>
    <BinaryTree type="DecisionTree" boostWeight="1.0000000000000000e+00" itree="24">
      <Node pos="s" depth="0" NCoef="0" IVar="6" Cut="2.4325367736816406e+02" cType="1" res="-9.9926628172397614e-03" rms="4.2060345411300659e-01" purity="4.9961784482002258e-01" nType="0">
        <Node pos="l" depth="1" NCoef="0" IVar="-1" Cut="0.0000000000000000e+00" cType="1" res="2.0428994670510292e-02" rms="4.1338858008384705e-01" purity="5.3745657205581665e-01" nType="-99"/>
        <Node pos="r" depth="1" NCoef="0" IVar="6" Cut="3.4381048583984375e+02" cType="0" res="-2.1113216876983643e-01" rms="4.5644357800483704e-01" purity="2.7160480618476868e-02" nType="0">
          <Node pos="l" depth="2" NCoef="0" IVar="-1" Cut="0.0000000000000000e+00" cType="1" res="1.4999999470133356e+30" rms="1.9556799530982971e-01" purity="3.9833553135395050e-02" nType="-99"/>
          <Node pos="r" depth="2" NCoef="0" IVar="-1" Cut="0.0000000000000000e+00" cType="1" res="-2.6763896135900759e+31" rms="4.9421182274818420e-01" purity="2.1340824663639069e-02" nType="-99"/>
        </Node>
      </Node>
    </BinaryTree>
    <BinaryTree type="DecisionTree" boostWeight="1.0000000000000000e+00" itree="25">
      <Node pos="s" depth="0" NCoef="0" IVar="0" Cut="1.1737697124481201e+00" cType="0" res="3.8742944598197937e-03" rms="3.9901873469352722e-01" purity="5.0224423408508301e-01" nType="0">
        <Node pos="l" depth="1" NCoef="0" IVar="-1" Cut="0.0000000000000000e+00" cType="1" res="2.4589675012975931e-03" rms="4.0060135722160339e-01" purity="5.2034473419189453e-01" nType="-99"/>
        <Node pos="r" depth="1" NCoef="0" IVar="10" Cut="1.9413933157920837e-01" cType="0" res="6.5309464931488037e-02" rms="3.6153548955917358e-01" purity="1.5125598013401031e-01" nType="0">
          <Node pos="l" depth="2" NCoef="0" IVar="-1" Cut="0.0000000000000000e+00" cType="1" res="1.5095230937004089e-01" rms="3.6151808500289917e-01" purity="1.5395887196063995e-01" nType="-99"/>
          <Node pos="r" depth="2" NCoef="0" IVar="-1" Cut="0.0000000000000000e+00" cType="1" res="2.5246763229370117e+01" rms="3.5003143548965454e-01" purity="1.4818152785301208e-01" nType="-99"/>
        </Node>
      </Node>
    </BinaryTree>
    <BinaryTree type="DecisionTree" boostWeight="1.0000000000000000e+00" itree="26">
      <Node pos="s" depth="0" NCoef="0" IVar="4" Cut="2.0874309539794922e+00" cType="1" res="2.7109656948596239e-03" rms="3.9516365528106689e-01" purity="5.0399261713027954e-01" nType="0">
        <Node pos="l" depth="1" NCoef="0" IVar="-1" Cut="0.0000000000000000e+00" cType="1" res="-5.6669227778911591e-03" rms="3.8652727007865906e-01" purity="5.0635635852813721e-01" nType="-99"/>
        <Node pos="r" depth="1" NCoef="0" IVar="12" Cut="8.1028411865234375e+01" cType="0" res="4.2971175163984299e-02" rms="4.6628662943840027e-01" purity="4.8191171884536743e-01" nType="0">
          <Node pos="l" depth="2" NCoef="0" IVar="-1" Cut="0.0000000000000000e+00" cType="1" res="3.6244153976440430e-01" rms="4.6829703450202942e-01" purity="6.5451347827911377e-01" nType="-99"/>
          <Node pos="r" depth="2" NCoef="0" IVar="-1" Cut="0.0000000000000000e+00" cType="1" res="3.9909679442644119e-02" rms="4.6127298474311829e-01" purity="4.1169625520706177e-01" nType="-99"/>
        </Node>
      </Node>
    </BinaryTree>
    <BinaryTree type="DecisionTree" boostWeight="1.0000000000000000e+00" itree="27">
      <Node pos="s" depth="0" NCoef="0" IVar="10" Cut="-3.3202791213989258e-01" cType="0" res="-2.0934443455189466e-03" rms="3.9358311891555786e-01" purity="5.0119054317474365e-01" nType="0">
        <Node pos="l" depth="1" NCoef="0" IVar="-1" Cut="0.0000000000000000e+00" cType="1" res="1.2794526293873787e-02" rms="3.9271780848503113e-01" purity="5.0553673505783081e-01" nType="-99"/>
        <Node pos="r" depth="1" NCoef="0" IVar="5" Cut="9.2413322448730469e+01" cType="1" res="-4.9866475164890289e-02" rms="3.9769119024276733e-01" purity="4.6413815021514893e-01" nType="0">
          <Node pos="l" depth="2" NCoef="0" IVar="-1" Cut="0.0000000000000000e+00" cType="1" res="-5.6278500705957413e-02" rms="3.9053687453269958e-01" purity="5.2817100286483765e-01" nType="-99"/>
          <Node pos="r" depth="2" NCoef="0" IVar="-1" Cut="0.0000000000000000e+00" cType="1" res="-6.8092763423919678e-01" rms="4.0345087647438049e-01" purity="3.1256347894668579e-01" nType="-99"/>
        </Node>
      </Node>
    </BinaryTree>
    <BinaryTree type="DecisionTree" boostWeight="1.0000000000000000e+00" itree="28">
      <Node pos="s" depth="0" NCoef="0" IVar="2" Cut="2.3935983180999756e+00" cType="0" res="1.0818828595802188e-03" rms="3.9323496818542480e-01" purity="4.9915131926536560e-01" nType="0">
        <Node pos="l" depth="1" NCoef="0" IVar="-1" Cut="0.0000000000000000e+00" cType="1" res="-3.6440327763557434e-02" rms="3.9476168155670166e-01" purity="5.9959238767623901e-01" nType="-99"/>
        <Node pos="r" depth="1" NCoef="0" IVar="2" Cut="2.0516507625579834e+00" cType="0" res="1.8327895551919937e-02" rms="3.9035671949386597e-01" purity="3.5271647572517395e-01" nType="0">
          <Node pos="l" depth="2" NCoef="0" IVar="-1" Cut="0.0000000000000000e+00" cType="1" res="2.2201165556907654e-01" rms="4.0715956687927246e-01" purity="4.2760801315307617e-01" nType="-99"/>
          <Node pos="r" depth="2" NCoef="0" IVar="-1" Cut="0.0000000000000000e+00" cType="1" res="-2.8427368961274624e-03" rms="3.8220682740211487e-01" purity="3.2494804263114929e-01" nType="-99"/>
        </Node>
      </Node>
    </BinaryTree>
    <BinaryTree type="DecisionTree" boostWeight="1.0000000000000000e+00" itree="29">
      <Node pos="s" depth="0" NCoef="0" IVar="7" Cut="2.4510017395019531e+02" cType="1" res="3.0703893862664700e-03" rms="3.9513823390007019e-01" purity="5.0274074077606201e-01" nType="0">
        <Node pos="l" depth="1" NCoef="0" IVar="-1" Cut="0.0000000000000000e+00" cType="1" res="-2.2820539772510529e-02" rms="3.9334309101104736e-01" purity="5.7504886388778687e-01" nType="-99"/>
        <Node pos="r" depth="1" NCoef="0" IVar="7" Cut="4.5308956909179688e+02" cType="1" res="2.6071604341268539e-02" rms="3.9840492606163025e-01" purity="3.3185186982154846e-01" nType="0">
          <Node pos="l" depth="2" NCoef="0" IVar="-1" Cut="0.0000000000000000e+00" cType="1" res="1.5824091434478760e-01" rms="4.1216632723808289e-01" purity="3.9018625020980835e-01" nType="-99"/>
          <Node pos="r" depth="2" NCoef="0" IVar="-1" Cut="0.0000000000000000e+00" cType="1" res="-2.8950336575508118e-01" rms="3.4705257415771484e-01" purity="1.5481753647327423e-01" nType="-99"/>
        </Node>
      </Node>
    </BinaryTree>
    <BinaryTree type="DecisionTree" boostWeight="1.0000000000000000e+00" itree="30">
      <Node pos="s" depth="0" NCoef="0" IVar="5" Cut="1.0857582092285156e+02" cType="0" res="-2.2210048045963049e-03" rms="3.9209300279617310e-01" purity="4.9926707148551941e-01" nType="0">
        <Node pos="l" depth="1" NCoef="0" IVar="-1" Cut="0.0000000000000000e+00" cType="1" res="1.3041305541992188e-01" rms="4.2168059945106506e-01" purity="5.0375252962112427e-01" nType="-99"/>
        <Node pos="r" depth="1" NCoef="0" IVar="0" Cut="1.6189980506896973e+00" cType="0" res="-5.7957097887992859e-03" rms="3.8903331756591797e-01" purity="4.9884980916976929e-01" nType="0">
          <Node pos="l" depth="2" NCoef="0" IVar="-1" Cut="0.0000000000000000e+00" cType="1" res="2.1909852512180805e-03" rms="3.7264078855514526e-01" purity="5.3058648109436035e-01" nType="-99"/>
          <Node pos="r" depth="2" NCoef="0" IVar="-1" Cut="0.0000000000000000e+00" cType="1" res="-4.4705620408058167e-01" rms="4.8371624946594238e-01" purity="2.8321611881256104e-01" nType="-99"/>
        </Node>
      </Node>
    </BinaryTree>
    <BinaryTree type="DecisionTree" boostWeight="1.0000000000000000e+00" itree="31">
      <Node pos="s" depth="0" NCoef="0" IVar="0" Cut="2.1212682723999023e+00" cType="0" res="3.6796508356928825e-03" rms="3.8901650905609131e-01" purity="5.0343120098114014e-01" nType="0">
        <Node pos="l" depth="1" NCoef="0" IVar="-1" Cut="0.0000000000000000e+00" cType="1" res="-1.9158199429512024e-02" rms="3.5584443807601929e-01" purity="5.2084070444107056e-01" nType="-99"/>
        <Node pos="r" depth="1" NCoef="0" IVar="4" Cut="5.9621036052703857e-01" cType="0" res="2.2204753011465073e-02" rms="4.4990661740303040e-01" purity="4.6708139777183533e-01" nType="0">
          <Node pos="l" depth="2" NCoef="0" IVar="-1" Cut="0.0000000000000000e+00" cType="1" res="1.1061098426580429e-01" rms="4.5389193296432495e-01" purity="4.9857014417648315e-01" nType="-99"/>
          <Node pos="r" depth="2" NCoef="0" IVar="-1" Cut="0.0000000000000000e+00" cType="1" res="-5.3941559791564941e-01" rms="3.9925086498260498e-01" purity="1.9364631175994873e-01" nType="-99"/>
        </Node>
      </Node>
    </BinaryTree>
    <BinaryTree type="DecisionTree" boostWeight="1.0000000000000000e+00" itree="32">
      <Node pos="s" depth="0" NCoef="0" IVar="6" Cut="8.3844169616699219e+01" cType="0" res="5.1060901023447514e-03" rms="3.9289489388465881e-01" purity="5.0320148468017578e-01" nType="0">
        <Node pos="l" depth="1" NCoef="0" IVar="-1" Cut="0.0000000000000000e+00" cType="1" res="-1.1546738445758820e-02" rms="3.8463461399078369e-01" purity="5.2980816364288330e-01" nType="-99"/>
        <Node pos="r" depth="1" NCoef="0" IVar="0" Cut="1.8362818956375122e+00" cType="0" res="6.6754557192325592e-02" rms="4.4424772262573242e-01" purity="3.0722892284393311e-01" nType="0">
          <Node pos="l" depth="2" NCoef="0" IVar="-1" Cut="0.0000000000000000e+00" cType="1" res="3.8200074434280396e-01" rms="4.6111306548118591e-01" purity="6.3063335418701172e-01" nType="-99"/>
          <Node pos="r" depth="2" NCoef="0" IVar="-1" Cut="0.0000000000000000e+00" cType="1" res="2.9466053843498230e-01" rms="4.3031331896781921e-01" purity="2.0538449287414551e-01" nType="-99"/>
        </Node>
      </Node>
    </BinaryTree>
    <BinaryTree type="DecisionTree" boostWeight="1.0000000000000000e+00" itree="33">
      <Node pos="s" depth="0" NCoef="0" IVar="10" Cut="3.3367720246315002e-01" cType="1" res="5.0075524486601353e-03" rms="3.9653187990188599e-01" purity="5.0440704822540283e-01" nType="0">
        <Node pos="l" depth="1" NCoef="0" IVar="-1" Cut="0.0000000000000000e+00" cType="1" res="-3.7511596456170082e-03" rms="3.9471375942230225e-01" purity="5.3811997175216675e-01" nType="-99"/>
        <Node pos="r" depth="1" NCoef="0" IVar="10" Cut="5.5546635389328003e-01" cType="1" res="3.5967417061328888e-02" rms="4.0421625971794128e-01" purity="3.3331489562988281e-01" nType="0">
          <Node pos="l" depth="2" NCoef="0" IVar="-1" Cut="0.0000000000000000e+00" cType="1" res="3.0699077248573303e-01" rms="4.1414397954940796e-01" purity="3.5754233598709106e-01" nType="-99"/>
          <Node pos="r" depth="2" NCoef="0" IVar="-1" Cut="0.0000000000000000e+00" cType="1" res="-4.9795705825090408e-02" rms="3.8287788629531860e-01" purity="2.9263901710510254e-01" nType="-99"/>
        </Node>
      </Node>
    </BinaryTree>
    <BinaryTree type="DecisionTree" boostWeight="1.0000000000000000e+00" itree="34">
      <Node pos="s" depth="0" NCoef="0" IVar="6" Cut="1.2594093322753906e+02" cType="1" res="-7.0431698113679886e-03" rms="3.9203047752380371e-01" purity="4.9779966473579407e-01" nType="0">
        <Node pos="l" depth="1" NCoef="0" IVar="-1" Cut="0.0000000000000000e+00" cType="1" res="-6.0775548219680786e-02" rms="4.1565975546836853e-01" purity="6.4914470911026001e-01" nType="-99"/>
        <Node pos="r" depth="1" NCoef="0" IVar="10" Cut="3.3292883634567261e-01" cType="1" res="1.3430045917630196e-02" rms="3.4971696138381958e-01" purity="2.5429931282997131e-01" nType="0">
          <Node pos="l" depth="2" NCoef="0" IVar="-1" Cut="0.0000000000000000e+00" cType="1" res="-8.2987477071583271e-04" rms="3.5511437058448792e-01" purity="2.7975136041641235e-01" nType="-99"/>
          <Node pos="r" depth="2" NCoef="0" IVar="-1" Cut="0.0000000000000000e+00" cType="1" res="1.0076868534088135e+00" rms="3.2120406627655029e-01" purity="1.5148875117301941e-01" nType="-99"/>
        </Node>
      </Node>
    </BinaryTree>
    <BinaryTree type="DecisionTree" boostWeight="1.0000000000000000e+00" itree="35">
      <Node pos="s" depth="0" NCoef="0" IVar="10" Cut="2.4008683860301971e-01" cType="1" res="1.5544925117865205e-03" rms="3.9330089092254639e-01" purity="5.0333416461944580e-01" nType="0">
        <Node pos="l" depth="1" NCoef="0" IVar="-1" Cut="0.0000000000000000e+00" cType="1" res="2.8151132166385651e-02" rms="3.8845467567443848e-01" purity="5.5116200447082520e-01" nType="-99"/>
        <Node pos="r" depth="1" NCoef="0" IVar="6" Cut="1.4143217468261719e+02" cType="1" res="-2.2569118067622185e-02" rms="4.0822482109069824e-01" purity="3.4278774261474609e-01" nType="0">
          <Node pos="l" depth="2" NCoef="0" IVar="-1" Cut="0.0000000000000000e+00" cType="1" res="-2.1107445657253265e-01" rms="4.6441447734832764e-01" purity="4.8678511381149292e-01" nType="-99"/>
          <Node pos="r" depth="2" NCoef="0" IVar="-1" Cut="0.0000000000000000e+00" cType="1" res="4.9277524948120117e+00" rms="2.5700816512107849e-01" purity="6.3152320683002472e-02" nType="-99"/>
        </Node>
      </Node>
    </BinaryTree>
    <BinaryTree type="DecisionTree" boostWeight="1.0000000000000000e+00" itree="36">
      <Node pos="s" depth="0" NCoef="0" IVar="6" Cut="1.6611080932617188e+02" cType="1" res="4.5848506852053106e-04" rms="3.9518818259239197e-01" purity="4.9703490734100342e-01" nType="0">
        <Node pos="l" depth="1" NCoef="0" IVar="-1" Cut="0.0000000000000000e+00" cType="1" res="-2.0717063918709755e-02" rms="4.2942664027214050e-01" purity="6.0377287864685059e-01" nType="-99"/>
        <Node pos="r" depth="1" NCoef="0" IVar="1" Cut="4.6123015880584717e-01" cType="1" res="3.3289544284343719e-02" rms="1.7939160764217377e-01" purity="3.3289544284343719e-02" nType="0">
          <Node pos="l" depth="2" NCoef="0" IVar="-1" Cut="0.0000000000000000e+00" cType="1" res="4.0000000601898649e+30" rms="2.5917327404022217e-01" purity="7.2414673864841461e-02" nType="-99"/>
          <Node pos="r" depth="2" NCoef="0" IVar="-1" Cut="0.0000000000000000e+00" cType="1" res="5.9999997880533424e+30" rms="1.5451572835445404e-01" purity="2.4474093690514565e-02" nType="-99"/>
        </Node>
      </Node>
    </BinaryTree>
    <BinaryTree type="DecisionTree" boostWeight="1.0000000000000000e+00" itree="37">
      <Node pos="s" depth="0" NCoef="0" IVar="6" Cut="1.8010853576660156e+02" cType="1" res="-8.0224543809890747e-02" rms="4.7845211625099182e-01" purity="5.0153112411499023e-01" nType="0">
        <Node pos="l" depth="1" NCoef="0" IVar="-1" Cut="0.0000000000000000e+00" cType="1" res="-7.3782429099082947e-02" rms="4.4974395632743835e-01" purity="5.8980894088745117e-01" nType="-99"/>
        <Node pos="r" depth="1" NCoef="0" IVar="6" Cut="2.6262179565429688e+02" cType="0" res="-3.8167899847030640e-01" rms="5.1553833484649658e-01" purity="2.2831033915281296e-02" nType="0">
          <Node pos="l" depth="2" NCoef="0" IVar="-1" Cut="0.0000000000000000e+00" cType="1" res="2.4999999620608018e+30" rms="1.6047197580337524e-01" purity="2.6450904086232185e-02" nType="-99"/>
          <Node pos="r" depth="2" NCoef="0" IVar="-1" Cut="0.0000000000000000e+00" cType="1" res="-9.8625928560154807e+31" rms="4.9979835748672485e-01" purity="2.0656500011682510e-02" nType="-99"/>
        </Node>
      </Node>
    </BinaryTree>
    <BinaryTree type="DecisionTree" boostWeight="1.0000000000000000e+00" itree="38">
      <Node pos="s" depth="0" NCoef="0" IVar="6" Cut="1.2594093322753906e+02" cType="1" res="-4.5726023381575942e-04" rms="4.2579817771911621e-01" purity="4.9972417950630188e-01" nType="0">
        <Node pos="l" depth="1" NCoef="0" IVar="-1" Cut="0.0000000000000000e+00" cType="1" res="8.6747512221336365e-02" rms="4.1795364022254944e-01" purity="6.5265107154846191e-01" nType="-99"/>
        <Node pos="r" depth="1" NCoef="0" IVar="10" Cut="3.3292883634567261e-01" cType="1" res="-5.4438710212707520e-02" rms="4.3272092938423157e-01" purity="2.5329652428627014e-01" nType="0">
          <Node pos="l" depth="2" NCoef="0" IVar="-1" Cut="0.0000000000000000e+00" cType="1" res="-3.8108065724372864e-01" rms="4.4925042986869812e-01" purity="2.7556100487709045e-01" nType="-99"/>
          <Node pos="r" depth="2" NCoef="0" IVar="-1" Cut="0.0000000000000000e+00" cType="1" res="7.0532447099685669e-01" rms="3.4644562005996704e-01" purity="1.6581186652183533e-01" nType="-99"/>
        </Node>
      </Node>
    </BinaryTree>
    <BinaryTree type="DecisionTree" boostWeight="1.0000000000000000e+00" itree="39">
      <Node pos="s" depth="0" NCoef="0" IVar="1" Cut="1.8449122905731201e+00" cType="1" res="4.5392024330794811e-03" rms="4.2851293087005615e-01" purity="5.0191098451614380e-01" nType="0">
        <Node pos="l" depth="1" NCoef="0" IVar="-1" Cut="0.0000000000000000e+00" cType="1" res="3.7114109843969345e-02" rms="4.3171811103820801e-01" purity="5.3240060806274414e-01" nType="-99"/>
        <Node pos="r" depth="1" NCoef="0" IVar="4" Cut="1.4845424890518188e+00" cType="0" res="-6.5418027341365814e-02" rms="3.8663098216056824e-01" purity="1.8369112908840179e-01" nType="0">
          <Node pos="l" depth="2" NCoef="0" IVar="-1" Cut="0.0000000000000000e+00" cType="1" res="-7.0545971393585205e-01" rms="4.2879885435104370e-01" purity="2.8267207741737366e-01" nType="-99"/>
          <Node pos="r" depth="2" NCoef="0" IVar="-1" Cut="0.0000000000000000e+00" cType="1" res="-5.3321492671966553e-01" rms="3.6033493280410767e-01" purity="1.3328580558300018e-01" nType="-99"/>
        </Node>
      </Node>
    </BinaryTree>
    <BinaryTree type="DecisionTree" boostWeight="1.0000000000000000e+00" itree="40">
      <Node pos="s" depth="0" NCoef="0" IVar="4" Cut="2.3856351375579834e+00" cType="1" res="6.7203247454017401e-04" rms="4.2735376954078674e-01" purity="5.0034356117248535e-01" nType="0">
        <Node pos="l" depth="1" NCoef="0" IVar="-1" Cut="0.0000000000000000e+00" cType="1" res="-7.8287655487656593e-03" rms="4.2463135719299316e-01" purity="5.0275176763534546e-01" nType="-99"/>
        <Node pos="r" depth="1" NCoef="0" IVar="7" Cut="2.2038098144531250e+02" cType="1" res="6.8037033081054688e-02" rms="4.8170611262321472e-01" purity="4.4413077831268311e-01" nType="0">
          <Node pos="l" depth="2" NCoef="0" IVar="-1" Cut="0.0000000000000000e+00" cType="1" res="5.0932854413986206e-01" rms="4.8842161893844604e-01" purity="5.2753216028213501e-01" nType="-99"/>
          <Node pos="r" depth="2" NCoef="0" IVar="-1" Cut="0.0000000000000000e+00" cType="1" res="-7.1446830034255981e-01" rms="4.2887201905250549e-01" purity="2.2901797294616699e-01" nType="-99"/>
        </Node>
      </Node>
    </BinaryTree>
    <BinaryTree type="DecisionTree" boostWeight="1.0000000000000000e+00" itree="41">
      <Node pos="s" depth="0" NCoef="0" IVar="2" Cut="2.6927945613861084e+00" cType="0" res="-2.8613514732569456e-03" rms="4.2497450113296509e-01" purity="4.9848854541778564e-01" nType="0">
        <Node pos="l" depth="1" NCoef="0" IVar="-1" Cut="0.0000000000000000e+00" cType="1" res="5.1788698881864548e-02" rms="4.1822463274002075e-01" purity="6.2991946935653687e-01" nType="-99"/>
        <Node pos="r" depth="1" NCoef="0" IVar="1" Cut="1.1530728340148926e+00" cType="1" res="-1.8404278904199600e-02" rms="4.2966425418853760e-01" purity="3.9337819814682007e-01" nType="0">
          <Node pos="l" depth="2" NCoef="0" IVar="-1" Cut="0.0000000000000000e+00" cType="1" res="-7.4127446860074997e-03" rms="4.4244080781936646e-01" purity="4.5576101541519165e-01" nType="-99"/>
          <Node pos="r" depth="2" NCoef="0" IVar="-1" Cut="0.0000000000000000e+00" cType="1" res="-3.6610063910484314e-01" rms="3.9561212062835693e-01" purity="2.4767100811004639e-01" nType="-99"/>
        </Node>
      </Node>
    </BinaryTree>
    <BinaryTree type="DecisionTree" boostWeight="1.0000000000000000e+00" itree="42">
      <Node pos="s" depth="0" NCoef="0" IVar="8" Cut="7.7290710449218750e+01" cType="1" res="4.4740829616785049e-03" rms="4.2750260233879089e-01" purity="4.9669960141181946e-01" nType="0">
        <Node pos="l" depth="1" NCoef="0" IVar="-1" Cut="0.0000000000000000e+00" cType="1" res="7.6107680797576904e-02" rms="4.3444055318832397e-01" purity="6.0397696495056152e-01" nType="-99"/>
        <Node pos="r" depth="1" NCoef="0" IVar="0" Cut="2.0936095714569092e+00" cType="1" res="-1.6522781923413277e-02" rms="4.1951814293861389e-01" purity="3.9133962988853455e-01" nType="0">
          <Node pos="l" depth="2" NCoef="0" IVar="-1" Cut="0.0000000000000000e+00" cType="1" res="8.8395170867443085e-02" rms="4.6657243371009827e-01" purity="5.0514668226242065e-01" nType="-99"/>
          <Node pos="r" depth="2" NCoef="0" IVar="-1" Cut="0.0000000000000000e+00" cType="1" res="-2.0692691206932068e-01" rms="3.9259180426597595e-01" purity="3.3515027165412903e-01" nType="-99"/>
        </Node>
      </Node>
    </BinaryTree>
    <BinaryTree type="DecisionTree" boostWeight="1.0000000000000000e+00" itree="43">
      <Node pos="s" depth="0" NCoef="0" IVar="9" Cut="4.9684719085693359e+01" cType="1" res="3.5815460141748190e-03" rms="4.3035560846328735e-01" purity="4.9794134497642517e-01" nType="0">
        <Node pos="l" depth="1" NCoef="0" IVar="-1" Cut="0.0000000000000000e+00" cType="1" res="5.3553827106952667e-02" rms="4.2954105138778687e-01" purity="6.0688000917434692e-01" nType="-99"/>
        <Node pos="r" depth="1" NCoef="0" IVar="1" Cut="6.9184559583663940e-01" cType="1" res="-1.5081767924129963e-02" rms="4.3070936203002930e-01" purity="3.5507851839065552e-01" nType="0">
          <Node pos="l" depth="2" NCoef="0" IVar="-1" Cut="0.0000000000000000e+00" cType="1" res="2.6172028854489326e-02" rms="4.4932168722152710e-01" purity="4.6868523955345154e-01" nType="-99"/>
          <Node pos="r" depth="2" NCoef="0" IVar="-1" Cut="0.0000000000000000e+00" cType="1" res="-2.9512658715248108e-01" rms="4.0892717242240906e-01" purity="2.3527899384498596e-01" nType="-99"/>
        </Node>
      </Node>
    </BinaryTree>
    <BinaryTree type="DecisionTree" boostWeight="1.0000000000000000e+00" itree="44">
      <Node pos="s" depth="0" NCoef="0" IVar="8" Cut="1.0929264831542969e+02" cType="1" res="-1.0546128032729030e-03" rms="4.2746910452842712e-01" purity="4.9613600969314575e-01" nType="0">
        <Node pos="l" depth="1" NCoef="0" IVar="-1" Cut="0.0000000000000000e+00" cType="1" res="1.9028998911380768e-02" rms="4.3955194950103760e-01" purity="5.5551505088806152e-01" nType="-99"/>
        <Node pos="r" depth="1" NCoef="0" IVar="4" Cut="1.3325698375701904e+00" cType="0" res="-3.2259788364171982e-02" rms="3.6550080776214600e-01" purity="2.2433757781982422e-01" nType="0">
          <Node pos="l" depth="2" NCoef="0" IVar="-1" Cut="0.0000000000000000e+00" cType="1" res="-4.0340790152549744e-01" rms="4.2751455307006836e-01" purity="3.7251573801040649e-01" nType="-99"/>
          <Node pos="r" depth="2" NCoef="0" IVar="-1" Cut="0.0000000000000000e+00" cType="1" res="-2.0569980144500732e-01" rms="3.3270847797393799e-01" purity="1.5797835588455200e-01" nType="-99"/>
        </Node>
      </Node>
    </BinaryTree>
    <BinaryTree type="DecisionTree" boostWeight="1.0000000000000000e+00" itree="45">
      <Node pos="s" depth="0" NCoef="0" IVar="6" Cut="1.5803063964843750e+02" cType="1" res="5.8154733851552010e-03" rms="4.3007746338844299e-01" purity="5.0322979688644409e-01" nType="0">
        <Node pos="l" depth="1" NCoef="0" IVar="-1" Cut="0.0000000000000000e+00" cType="1" res="9.1203495860099792e-02" rms="4.4138523936271667e-01" purity="6.2277179956436157e-01" nType="-99"/>
        <Node pos="r" depth="1" NCoef="0" IVar="10" Cut="3.3292883634567261e-01" cType="1" res="-9.1145426034927368e-02" rms="3.6674860119819641e-01" purity="3.4191135317087173e-02" nType="0">
          <Node pos="l" depth="2" NCoef="0" IVar="-1" Cut="0.0000000000000000e+00" cType="1" res="-3.2215655922776694e+31" rms="4.0063175559043884e-01" purity="3.5567745566368103e-02" nType="-99"/>
          <Node pos="r" depth="2" NCoef="0" IVar="-1" Cut="0.0000000000000000e+00" cType="1" res="2.2258364401425923e+30" rms="1.7049202322959900e-01" purity="2.9607441276311874e-02" nType="-99"/>
        </Node>
      </Node>
    </BinaryTree>
    <BinaryTree type="DecisionTree" boostWeight="1.0000000000000000e+00" itree="46">
      <Node pos="s" depth="0" NCoef="0" IVar="8" Cut="7.6856750488281250e+01" cType="1" res="1.2412302196025848e-02" rms="4.0153566002845764e-01" purity="5.0191885232925415e-01" nType="0">
        <Node pos="l" depth="1" NCoef="0" IVar="-1" Cut="0.0000000000000000e+00" cType="1" res="-4.2076367884874344e-02" rms="4.2356812953948975e-01" purity="6.0312759876251221e-01" nType="-99"/>
        <Node pos="r" depth="1" NCoef="0" IVar="3" Cut="1.6003570556640625e+00" cType="1" res="3.5440605133771896e-02" rms="3.7832555174827576e-01" purity="4.0725547075271606e-01" nType="0">
          <Node pos="l" depth="2" NCoef="0" IVar="-1" Cut="0.0000000000000000e+00" cType="1" res="2.3880371451377869e-01" rms="3.8925960659980774e-01" purity="5.1981115341186523e-01" nType="-99"/>
          <Node pos="r" depth="2" NCoef="0" IVar="-1" Cut="0.0000000000000000e+00" cType="1" res="9.9634408950805664e-02" rms="3.7115359306335449e-01" purity="3.4555369615554810e-01" nType="-99"/>
        </Node>
      </Node>
    </BinaryTree>
    <BinaryTree type="DecisionTree" boostWeight="1.0000000000000000e+00" itree="47">
      <Node pos="s" depth="0" NCoef="0" IVar="6" Cut="1.2594093322753906e+02" cType="1" res="1.8336777575314045e-03" rms="4.0010407567024231e-01" purity="4.9965959787368774e-01" nType="0">
        <Node pos="l" depth="1" NCoef="0" IVar="-1" Cut="0.0000000000000000e+00" cType="1" res="-1.1033020168542862e-01" rms="4.1627848148345947e-01" purity="6.5104228258132935e-01" nType="-99"/>
        <Node pos="r" depth="1" NCoef="0" IVar="10" Cut="2.3793502151966095e-01" cType="1" res="5.6483156979084015e-02" rms="3.6600658297538757e-01" purity="2.5566187500953674e-01" nType="0">
          <Node pos="l" depth="2" NCoef="0" IVar="-1" Cut="0.0000000000000000e+00" cType="1" res="3.7035503983497620e-01" rms="3.5240560770034790e-01" purity="2.7988666296005249e-01" nType="-99"/>
          <Node pos="r" depth="2" NCoef="0" IVar="-1" Cut="0.0000000000000000e+00" cType="1" res="2.5458419695496559e-02" rms="3.9307710528373718e-01" purity="1.9432197511196136e-01" nType="-99"/>
        </Node>
      </Node>
    </BinaryTree>
    <BinaryTree type="DecisionTree" boostWeight="1.0000000000000000e+00" itree="48">
      <Node pos="s" depth="0" NCoef="0" IVar="2" Cut="2.3935911655426025e+00" cType="0" res="-7.1570102591067553e-04" rms="3.9737868309020996e-01" purity="4.9837705492973328e-01" nType="0">
        <Node pos="l" depth="1" NCoef="0" IVar="-1" Cut="0.0000000000000000e+00" cType="1" res="-5.5983528494834900e-02" rms="3.9573669433593750e-01" purity="5.9876608848571777e-01" nType="-99"/>
        <Node pos="r" depth="1" NCoef="0" IVar="1" Cut="1.1512991189956665e+00" cType="1" res="2.0407963544130325e-02" rms="3.9880076050758362e-01" purity="3.5295683145523071e-01" nType="0">
          <Node pos="l" depth="2" NCoef="0" IVar="-1" Cut="0.0000000000000000e+00" cType="1" res="1.6276327893137932e-02" rms="4.1884526610374451e-01" purity="4.0779218077659607e-01" nType="-99"/>
          <Node pos="r" depth="2" NCoef="0" IVar="-1" Cut="0.0000000000000000e+00" cType="1" res="3.3687788248062134e-01" rms="3.4891045093536377e-01" purity="2.3404526710510254e-01" nType="-99"/>
        </Node>
      </Node>
    </BinaryTree>
    <BinaryTree type="DecisionTree" boostWeight="1.0000000000000000e+00" itree="49">
      <Node pos="s" depth="0" NCoef="0" IVar="1" Cut="1.8449161052703857e+00" cType="1" res="-1.6193480696529150e-03" rms="3.9721170067787170e-01" purity="4.9908336997032166e-01" nType="0">
        <Node pos="l" depth="1" NCoef="0" IVar="-1" Cut="0.0000000000000000e+00" cType="1" res="-2.2009693086147308e-02" rms="4.0443792939186096e-01" purity="5.2958446741104126e-01" nType="-99"/>
        <Node pos="r" depth="1" NCoef="0" IVar="0" Cut="2.0287313461303711e+00" cType="1" res="4.5616030693054199e-02" rms="3.0697157979011536e-01" purity="1.7736142873764038e-01" nType="0">
          <Node pos="l" depth="2" NCoef="0" IVar="-1" Cut="0.0000000000000000e+00" cType="1" res="5.9903842210769653e-01" rms="4.7339838743209839e-01" purity="5.8658951520919800e-01" nType="-99"/>
          <Node pos="r" depth="2" NCoef="0" IVar="-1" Cut="0.0000000000000000e+00" cType="1" res="3.5237380862236023e-01" rms="2.9338982701301575e-01" purity="1.5633654594421387e-01" nType="-99"/>
        </Node>
      </Node>
    </BinaryTree>
    <BinaryTree type="DecisionTree" boostWeight="1.0000000000000000e+00" itree="50">
      <Node pos="s" depth="0" NCoef="0" IVar="0" Cut="2.3581428527832031e+00" cType="0" res="-2.3473387118428946e-03" rms="3.9346638321876526e-01" purity="4.9970325827598572e-01" nType="0">
        <Node pos="l" depth="1" NCoef="0" IVar="-1" Cut="0.0000000000000000e+00" cType="1" res="3.2177831977605820e-02" rms="3.4817200899124146e-01" purity="5.0050544738769531e-01" nType="-99"/>
        <Node pos="r" depth="1" NCoef="0" IVar="0" Cut="1.3316820859909058e+00" cType="0" res="-1.6113396733999252e-02" rms="4.4427207112312317e-01" purity="4.9867874383926392e-01" nType="0">
          <Node pos="l" depth="2" NCoef="0" IVar="-1" Cut="0.0000000000000000e+00" cType="1" res="-1.0310273617506027e-01" rms="4.5266041159629822e-01" purity="5.5864852666854858e-01" nType="-99"/>
          <Node pos="r" depth="2" NCoef="0" IVar="-1" Cut="0.0000000000000000e+00" cType="1" res="1.2355922460556030e+00" rms="3.8999080657958984e-01" purity="2.0470772683620453e-01" nType="-99"/>
        </Node>
      </Node>
    </BinaryTree>
    <BinaryTree type="DecisionTree" boostWeight="1.0000000000000000e+00" itree="51">
      <Node pos="s" depth="0" NCoef="0" IVar="6" Cut="1.5888146972656250e+02" cType="1" res="4.8543652519583702e-03" rms="3.9927092194557190e-01" purity="4.9896699190139771e-01" nType="0">
        <Node pos="l" depth="1" NCoef="0" IVar="-1" Cut="0.0000000000000000e+00" cType="1" res="-8.3650061860680580e-03" rms="4.3698221445083618e-01" purity="6.1675399541854858e-01" nType="-99"/>
        <Node pos="r" depth="1" NCoef="0" IVar="3" Cut="1.0093796253204346e+00" cType="1" res="3.5109981894493103e-02" rms="1.8468225002288818e-01" purity="3.5225115716457367e-02" nType="0">
          <Node pos="l" depth="2" NCoef="0" IVar="-1" Cut="0.0000000000000000e+00" cType="1" res="2.2499999960778671e+30" rms="3.5176095366477966e-01" purity="1.4466322958469391e-01" nType="-99"/>
          <Node pos="r" depth="2" NCoef="0" IVar="-1" Cut="0.0000000000000000e+00" cType="1" res="9.2124124820581275e+30" rms="1.7027495801448822e-01" purity="2.9750585556030273e-02" nType="-99"/>
        </Node>
      </Node>
    </BinaryTree>
    <BinaryTree type="DecisionTree" boostWeight="1.0000000000000000e+00" itree="52">
      <Node pos="s" depth="0" NCoef="0" IVar="4" Cut="2.5337958335876465e+00" cType="1" res="5.4401862435042858e-03" rms="3.9672124385833740e-01" purity="5.0088524818420410e-01" nType="0">
        <Node pos="l" depth="1" NCoef="0" IVar="-1" Cut="0.0000000000000000e+00" cType="1" res="1.3574119657278061e-02" rms="3.9371660351753235e-01" purity="5.0268071889877319e-01" nType="-99"/>
        <Node pos="r" depth="1" NCoef="0" IVar="9" Cut="7.5858680725097656e+01" cType="1" res="7.5546719133853912e-02" rms="5.0064492225646973e-01" purity="4.2657822370529175e-01" nType="0">
          <Node pos="l" depth="2" NCoef="0" IVar="-1" Cut="0.0000000000000000e+00" cType="1" res="5.8084541559219360e-01" rms="4.9935895204544067e-01" purity="4.2753148078918457e-01" nType="-99"/>
          <Node pos="r" depth="2" NCoef="0" IVar="-1" Cut="0.0000000000000000e+00" cType="1" res="-6.7936749458312988e+00" rms="4.2307147383689880e-01" purity="3.9858451485633850e-01" nType="-99"/>
        </Node>
      </Node>
    </BinaryTree>
    <BinaryTree type="DecisionTree" boostWeight="1.0000000000000000e+00" itree="53">
      <Node pos="s" depth="0" NCoef="0" IVar="0" Cut="1.8843935728073120e+00" cType="0" res="3.7306349258869886e-03" rms="3.9414829015731812e-01" purity="5.0583434104919434e-01" nType="0">
        <Node pos="l" depth="1" NCoef="0" IVar="-1" Cut="0.0000000000000000e+00" cType="1" res="3.4571506083011627e-02" rms="3.6996853351593018e-01" purity="5.3353935480117798e-01" nType="-99"/>
        <Node pos="r" depth="1" NCoef="0" IVar="6" Cut="6.3511070251464844e+01" cType="0" res="-1.8690729513764381e-02" rms="4.6789783239364624e-01" purity="4.0953204035758972e-01" nType="0">
          <Node pos="l" depth="2" NCoef="0" IVar="-1" Cut="0.0000000000000000e+00" cType="1" res="-1.4399975538253784e-01" rms="4.8572602868080139e-01" purity="4.7546291351318359e-01" nType="-99"/>
          <Node pos="r" depth="2" NCoef="0" IVar="-1" Cut="0.0000000000000000e+00" cType="1" res="2.0797894001007080e+00" rms="3.7649664282798767e-01" purity="1.3232086598873138e-01" nType="-99"/>
        </Node>
      </Node>
    </BinaryTree>
    <BinaryTree type="DecisionTree" boostWeight="1.0000000000000000e+00" itree="54">
      <Node pos="s" depth="0" NCoef="0" IVar="6" Cut="1.5803063964843750e+02" cType="1" res="2.7196188457310200e-03" rms="3.9974489808082581e-01" purity="5.0258988142013550e-01" nType="0">
        <Node pos="l" depth="1" NCoef="0" IVar="-1" Cut="0.0000000000000000e+00" cType="1" res="-1.4051331207156181e-02" rms="4.3737187981605530e-01" purity="6.2221139669418335e-01" nType="-99"/>
        <Node pos="r" depth="1" NCoef="0" IVar="0" Cut="4.2546687126159668e+00" cType="0" res="3.1845953315496445e-02" rms="1.8808285892009735e-01" purity="3.4117639064788818e-02" nType="0">
          <Node pos="l" depth="2" NCoef="0" IVar="-1" Cut="0.0000000000000000e+00" cType="1" res="7.4999997350666780e+29" rms="3.6819380521774292e-01" purity="1.6172005236148834e-01" nType="-99"/>
          <Node pos="r" depth="2" NCoef="0" IVar="-1" Cut="0.0000000000000000e+00" cType="1" res="9.7509303017941935e+30" rms="1.8358069658279419e-01" purity="3.2297376543283463e-02" nType="-99"/>
        </Node>
      </Node>
    </BinaryTree>
    <BinaryTree type="DecisionTree" boostWeight="1.0000000000000000e+00" itree="55">
      <Node pos="s" depth="0" NCoef="0" IVar="9" Cut="5.3083560943603516e+01" cType="1" res="7.9412059858441353e-03" rms="4.0045580267906189e-01" purity="5.0456064939498901e-01" nType="0">
        <Node pos="l" depth="1" NCoef="0" IVar="-1" Cut="0.0000000000000000e+00" cType="1" res="-1.4246723148971796e-03" rms="4.1420036554336548e-01" purity="6.0698938369750977e-01" nType="-99"/>
        <Node pos="r" depth="1" NCoef="0" IVar="4" Cut="1.6395276784896851e+00" cType="0" res="2.2836472839117050e-02" rms="3.7437501549720764e-01" purity="3.2287365198135376e-01" nType="0">
          <Node pos="l" depth="2" NCoef="0" IVar="-1" Cut="0.0000000000000000e+00" cType="1" res="2.2194638848304749e-01" rms="4.5479851961135864e-01" purity="5.0524348020553589e-01" nType="-99"/>
          <Node pos="r" depth="2" NCoef="0" IVar="-1" Cut="0.0000000000000000e+00" cType="1" res="7.4801191687583923e-02" rms="3.4520372748374939e-01" purity="2.6688084006309509e-01" nType="-99"/>
        </Node>
      </Node>
    </BinaryTree>
    <BinaryTree type="DecisionTree" boostWeight="1.0000000000000000e+00" itree="56">
      <Node pos="s" depth="0" NCoef="0" IVar="2" Cut="1.1967996358871460e+00" cType="0" res="-2.7640098705887794e-03" rms="3.9797556400299072e-01" purity="5.0049769878387451e-01" nType="0">
        <Node pos="l" depth="1" NCoef="0" IVar="-1" Cut="0.0000000000000000e+00" cType="1" res="3.7518942262977362e-03" rms="4.0048453211784363e-01" purity="5.3272205591201782e-01" nType="-99"/>
        <Node pos="r" depth="1" NCoef="0" IVar="4" Cut="1.6127704381942749e+00" cType="1" res="-2.6930512860417366e-02" rms="3.8078108429908752e-01" purity="2.9598057270050049e-01" nType="0">
          <Node pos="l" depth="2" NCoef="0" IVar="-1" Cut="0.0000000000000000e+00" cType="1" res="-9.9868677556514740e-02" rms="3.8143521547317505e-01" purity="3.0324280261993408e-01" nType="-99"/>
          <Node pos="r" depth="2" NCoef="0" IVar="-1" Cut="0.0000000000000000e+00" cType="1" res="-7.5518560409545898e-01" rms="3.6375683546066284e-01" purity="2.2389283776283264e-01" nType="-99"/>
        </Node>
      </Node>
    </BinaryTree>
    <BinaryTree type="DecisionTree" boostWeight="1.0000000000000000e+00" itree="57">
      <Node pos="s" depth="0" NCoef="0" IVar="5" Cut="1.7174379348754883e+01" cType="1" res="3.8454886525869370e-03" rms="4.0126192569732666e-01" purity="5.0108653306961060e-01" nType="0">
        <Node pos="l" depth="1" NCoef="0" IVar="-1" Cut="0.0000000000000000e+00" cType="1" res="1.6990710794925690e-01" rms="3.8987889885902405e-01" purity="5.6260836124420166e-01" nType="-99"/>
        <Node pos="r" depth="1" NCoef="0" IVar="5" Cut="9.0621414184570312e+01" cType="0" res="1.2683852110058069e-03" rms="4.0179321169853210e-01" purity="4.9737450480461121e-01" nType="0">
          <Node pos="l" depth="2" NCoef="0" IVar="-1" Cut="0.0000000000000000e+00" cType="1" res="7.2173327207565308e-02" rms="4.1557922959327698e-01" purity="5.0338685512542725e-01" nType="-99"/>
          <Node pos="r" depth="2" NCoef="0" IVar="-1" Cut="0.0000000000000000e+00" cType="1" res="-1.8403718248009682e-02" rms="3.9669370651245117e-01" purity="4.9528029561042786e-01" nType="-99"/>
        </Node>
      </Node>
    </BinaryTree>
    <BinaryTree type="DecisionTree" boostWeight="1.0000000000000000e+00" itree="58">
      <Node pos="s" depth="0" NCoef="0" IVar="6" Cut="1.5659153747558594e+02" cType="1" res="-2.1162931807339191e-03" rms="3.9734059572219849e-01" purity="5.0125968456268311e-01" nType="0">
        <Node pos="l" depth="1" NCoef="0" IVar="-1" Cut="0.0000000000000000e+00" cType="1" res="-2.7457352727651596e-02" rms="4.3446362018585205e-01" purity="6.2338423728942871e-01" nType="-99"/>
        <Node pos="r" depth="1" NCoef="0" IVar="3" Cut="1.0093796253204346e+00" cType="1" res="2.4412563070654869e-02" rms="1.9730187952518463e-01" purity="3.4326568245887756e-02" nType="0">
          <Node pos="l" depth="2" NCoef="0" IVar="-1" Cut="0.0000000000000000e+00" cType="1" res="9.0182361602783203e+00" rms="3.3503812551498413e-01" purity="1.2788565456867218e-01" nType="-99"/>
          <Node pos="r" depth="2" NCoef="0" IVar="-1" Cut="0.0000000000000000e+00" cType="1" res="1.2163232803344727e+01" rms="1.8683800101280212e-01" purity="2.9745273292064667e-02" nType="-99"/>
        </Node>
      </Node>
    </BinaryTree>
    <BinaryTree type="DecisionTree" boostWeight="1.0000000000000000e+00" itree="59">
      <Node pos="s" depth="0" NCoef="0" IVar="6" Cut="1.5888146972656250e+02" cType="1" res="2.3649118375033140e-03" rms="4.0404462814331055e-01" purity="4.9816301465034485e-01" nType="0">
        <Node pos="l" depth="1" NCoef="0" IVar="-1" Cut="0.0000000000000000e+00" cType="1" res="-1.9997160881757736e-02" rms="4.4216489791870117e-01" purity="6.1649054288864136e-01" nType="-99"/>
        <Node pos="r" depth="1" NCoef="0" IVar="2" Cut="2.0943994522094727e+00" cType="0" res="3.7169497460126877e-02" rms="1.8999680876731873e-01" purity="3.7324924021959305e-02" nType="0">
          <Node pos="l" depth="2" NCoef="0" IVar="-1" Cut="0.0000000000000000e+00" cType="1" res="9.4704667651985172e+30" rms="2.2390294075012207e-01" purity="5.2731994539499283e-02" nType="-99"/>
          <Node pos="r" depth="2" NCoef="0" IVar="-1" Cut="0.0000000000000000e+00" cType="1" res="2.7285213963538258e+30" rms="1.3557700812816620e-01" purity="1.8575731664896011e-02" nType="-99"/>
        </Node>
      </Node>
    </BinaryTree>
    <BinaryTree type="DecisionTree" boostWeight="1.0000000000000000e+00" itree="60">
      <Node pos="s" depth="0" NCoef="0" IVar="6" Cut="1.2594093322753906e+02" cType="1" res="-6.2090535648167133e-03" rms="4.1601943969726562e-01" purity="5.0123882293701172e-01" nType="0">
        <Node pos="l" depth="1" NCoef="0" IVar="-1" Cut="0.0000000000000000e+00" cType="1" res="3.4550867974758148e-02" rms="4.2171007394790649e-01" purity="6.5340769290924072e-01" nType="-99"/>
        <Node pos="r" depth="1" NCoef="0" IVar="6" Cut="2.3208190917968750e+02" cType="1" res="-3.4947980195283890e-02" rms="4.0502634644508362e-01" purity="2.5584727525711060e-01" nType="0">
          <Node pos="l" depth="2" NCoef="0" IVar="-1" Cut="0.0000000000000000e+00" cType="1" res="-2.4523064494132996e-01" rms="4.5086386799812317e-01" purity="3.2180011272430420e-01" nType="-99"/>
          <Node pos="r" depth="2" NCoef="0" IVar="-1" Cut="0.0000000000000000e+00" cType="1" res="2.7312061183677349e+30" rms="1.4161431789398193e-01" purity="2.0323129370808601e-02" nType="-99"/>
        </Node>
      </Node>
    </BinaryTree>
    <BinaryTree type="DecisionTree" boostWeight="1.0000000000000000e+00" itree="61">
      <Node pos="s" depth="0" NCoef="0" IVar="2" Cut="2.0943911075592041e+00" cType="0" res="3.6091771908104420e-03" rms="4.2184874415397644e-01" purity="5.0050324201583862e-01" nType="0">
        <Node pos="l" depth="1" NCoef="0" IVar="-1" Cut="0.0000000000000000e+00" cType="1" res="-2.0786905661225319e-02" rms="4.2648214101791382e-01" purity="5.7503962516784668e-01" nType="-99"/>
        <Node pos="r" depth="1" NCoef="0" IVar="10" Cut="-6.1483091115951538e-01" cType="1" res="2.5354258716106415e-02" rms="4.1056111454963684e-01" purity="3.3534193038940430e-01" nType="0">
          <Node pos="l" depth="2" NCoef="0" IVar="-1" Cut="0.0000000000000000e+00" cType="1" res="3.3068278431892395e-01" rms="4.1057124733924866e-01" purity="4.3607670068740845e-01" nType="-99"/>
          <Node pos="r" depth="2" NCoef="0" IVar="-1" Cut="0.0000000000000000e+00" cType="1" res="1.0531707108020782e-01" rms="4.1018331050872803e-01" purity="3.3039844036102295e-01" nType="-99"/>
        </Node>
      </Node>
    </BinaryTree>
    <BinaryTree type="DecisionTree" boostWeight="1.0000000000000000e+00" itree="62">
      <Node pos="s" depth="0" NCoef="0" IVar="10" Cut="-1.4060778915882111e-01" cType="1" res="-3.7185677792876959e-03" rms="4.1901111602783203e-01" purity="4.9714088439941406e-01" nType="0">
        <Node pos="l" depth="1" NCoef="0" IVar="-1" Cut="0.0000000000000000e+00" cType="1" res="-7.1826502680778503e-02" rms="4.0665468573570251e-01" purity="5.3458786010742188e-01" nType="-99"/>
        <Node pos="r" depth="1" NCoef="0" IVar="1" Cut="1.8449136018753052e+00" cType="1" res="2.6770827826112509e-03" rms="4.2307311296463013e-01" purity="4.8400780558586121e-01" nType="0">
          <Node pos="l" depth="2" NCoef="0" IVar="-1" Cut="0.0000000000000000e+00" cType="1" res="2.4589233100414276e-02" rms="4.2864093184471130e-01" purity="5.1355212926864624e-01" nType="-99"/>
          <Node pos="r" depth="2" NCoef="0" IVar="-1" Cut="0.0000000000000000e+00" cType="1" res="-3.4262707829475403e-01" rms="3.5872480273246765e-01" purity="1.8215321004390717e-01" nType="-99"/>
        </Node>
      </Node>
    </BinaryTree>
    <BinaryTree type="DecisionTree" boostWeight="1.0000000000000000e+00" itree="63">
      <Node pos="s" depth="0" NCoef="0" IVar="6" Cut="1.5803063964843750e+02" cType="1" res="1.2484696926549077e-03" rms="4.1755303740501404e-01" purity="5.0303554534912109e-01" nType="0">
        <Node pos="l" depth="1" NCoef="0" IVar="-1" Cut="0.0000000000000000e+00" cType="1" res="3.5058010369539261e-02" rms="4.4132620096206665e-01" purity="6.2256872653961182e-01" nType="-99"/>
        <Node pos="r" depth="1" NCoef="0" IVar="2" Cut="2.0944244861602783e+00" cType="0" res="-4.1355878114700317e-02" rms="3.0246970057487488e-01" purity="3.1257890164852142e-02" nType="0">
          <Node pos="l" depth="2" NCoef="0" IVar="-1" Cut="0.0000000000000000e+00" cType="1" res="-1.4865620413959727e+31" rms="3.8798868656158447e-01" purity="4.7146454453468323e-02" nType="-99"/>
          <Node pos="r" depth="2" NCoef="0" IVar="-1" Cut="0.0000000000000000e+00" cType="1" res="1.3043171692214137e+30" rms="1.2163481116294861e-01" purity="1.1854127049446106e-02" nType="-99"/>
        </Node>
      </Node>
    </BinaryTree>
    <BinaryTree type="DecisionTree" boostWeight="1.0000000000000000e+00" itree="64">
      <Node pos="s" depth="0" NCoef="0" IVar="6" Cut="1.2594093322753906e+02" cType="1" res="7.3766442947089672e-03" rms="4.0472599864006042e-01" purity="4.9872544407844543e-01" nType="0">
        <Node pos="l" depth="1" NCoef="0" IVar="-1" Cut="0.0000000000000000e+00" cType="1" res="-2.4406740441918373e-02" rms="4.2370700836181641e-01" purity="6.5102636814117432e-01" nType="-99"/>
        <Node pos="r" depth="1" NCoef="0" IVar="2" Cut="2.6927945613861084e+00" cType="0" res="3.1717572361230850e-02" rms="3.7087917327880859e-01" purity="2.5376793742179871e-01" nType="0">
          <Node pos="l" depth="2" NCoef="0" IVar="-1" Cut="0.0000000000000000e+00" cType="1" res="2.2600546479225159e-01" rms="4.0012767910957336e-01" purity="3.9416137337684631e-01" nType="-99"/>
          <Node pos="r" depth="2" NCoef="0" IVar="-1" Cut="0.0000000000000000e+00" cType="1" res="1.1217086017131805e-01" rms="3.5096114873886108e-01" purity="1.7049691081047058e-01" nType="-99"/>
        </Node>
      </Node>
    </BinaryTree>
    <BinaryTree type="DecisionTree" boostWeight="1.0000000000000000e+00" itree="65">
      <Node pos="s" depth="0" NCoef="0" IVar="6" Cut="1.5803063964843750e+02" cType="1" res="1.3675082009285688e-03" rms="4.0030425786972046e-01" purity="5.0083810091018677e-01" nType="0">
        <Node pos="l" depth="1" NCoef="0" IVar="-1" Cut="0.0000000000000000e+00" cType="1" res="-1.7532411962747574e-02" rms="4.3917042016983032e-01" purity="6.2089890241622925e-01" nType="-99"/>
        <Node pos="r" depth="1" NCoef="0" IVar="3" Cut="1.0093795061111450e+00" cType="1" res="2.9905494302511215e-02" rms="1.7774516344070435e-01" purity="3.1196590512990952e-02" nType="0">
          <Node pos="l" depth="2" NCoef="0" IVar="-1" Cut="0.0000000000000000e+00" cType="1" res="1.7473151909823611e+30" rms="3.1679421663284302e-01" purity="1.1289060115814209e-01" nType="-99"/>
          <Node pos="r" depth="2" NCoef="0" IVar="-1" Cut="0.0000000000000000e+00" cType="1" res="8.0784805622745624e+30" rms="1.6682900488376617e-01" purity="2.7151361107826233e-02" nType="-99"/>
        </Node>
      </Node>
    </BinaryTree>
    <BinaryTree type="DecisionTree" boostWeight="1.0000000000000000e+00" itree="66">
      <Node pos="s" depth="0" NCoef="0" IVar="2" Cut="2.0943937301635742e+00" cType="0" res="-1.5934312250465155e-03" rms="4.1094830632209778e-01" purity="5.0625389814376831e-01" nType="0">
        <Node pos="l" depth="1" NCoef="0" IVar="-1" Cut="0.0000000000000000e+00" cType="1" res="6.0992632061243057e-02" rms="4.0259471535682678e-01" purity="5.8633154630661011e-01" nType="-99"/>
        <Node pos="r" depth="1" NCoef="0" IVar="6" Cut="1.5888146972656250e+02" cType="1" res="-4.8950843513011932e-02" rms="4.2599192261695862e-01" purity="3.2010453939437866e-01" nType="0">
          <Node pos="l" depth="2" NCoef="0" IVar="-1" Cut="0.0000000000000000e+00" cType="1" res="-1.1365246772766113e-01" rms="4.6138206124305725e-01" purity="4.5129132270812988e-01" nType="-99"/>
          <Node pos="r" depth="2" NCoef="0" IVar="-1" Cut="0.0000000000000000e+00" cType="1" res="-1.3102516954004654e+31" rms="3.2459315657615662e-01" purity="1.1949310079216957e-02" nType="-99"/>
        </Node>
      </Node>
    </BinaryTree>
    <BinaryTree type="DecisionTree" boostWeight="1.0000000000000000e+00" itree="67">
      <Node pos="s" depth="0" NCoef="0" IVar="6" Cut="1.5803063964843750e+02" cType="1" res="-2.5023060152307153e-04" rms="3.9861482381820679e-01" purity="4.9946683645248413e-01" nType="0">
        <Node pos="l" depth="1" NCoef="0" IVar="-1" Cut="0.0000000000000000e+00" cType="1" res="-2.5456923991441727e-02" rms="4.3651789426803589e-01" purity="6.1935496330261230e-01" nType="-99"/>
        <Node pos="r" depth="1" NCoef="0" IVar="3" Cut="1.0093796253204346e+00" cType="1" res="3.1057616695761681e-02" rms="1.8595612049102783e-01" purity="3.3300936222076416e-02" nType="0">
          <Node pos="l" depth="2" NCoef="0" IVar="-1" Cut="0.0000000000000000e+00" cType="1" res="1.7500000641119977e+30" rms="3.1951504945755005e-01" purity="1.1540913581848145e-01" nType="-99"/>
          <Node pos="r" depth="2" NCoef="0" IVar="-1" Cut="0.0000000000000000e+00" cType="1" res="8.5089850912684300e+30" rms="1.7599059641361237e-01" purity="2.9350392520427704e-02" nType="-99"/>
        </Node>
      </Node>
    </BinaryTree>
    <BinaryTree type="DecisionTree" boostWeight="1.0000000000000000e+00" itree="68">
      <Node pos="s" depth="0" NCoef="0" IVar="6" Cut="1.5803063964843750e+02" cType="1" res="-8.7832529097795486e-03" rms="4.2448070645332336e-01" purity="5.0444865226745605e-01" nType="0">
        <Node pos="l" depth="1" NCoef="0" IVar="-1" Cut="0.0000000000000000e+00" cType="1" res="1.7138212919235229e-02" rms="4.3946298956871033e-01" purity="6.2409681081771851e-01" nType="-99"/>
        <Node pos="r" depth="1" NCoef="0" IVar="10" Cut="3.3367720246315002e-01" cType="0" res="-6.6072955727577209e-02" rms="3.5391798615455627e-01" purity="3.4801535308361053e-02" nType="0">
          <Node pos="l" depth="2" NCoef="0" IVar="-1" Cut="0.0000000000000000e+00" cType="1" res="2.0814755857078604e+30" rms="2.0925164222717285e-01" purity="3.5814579576253891e-02" nType="-99"/>
          <Node pos="r" depth="2" NCoef="0" IVar="-1" Cut="0.0000000000000000e+00" cType="1" res="-2.3914965727913316e+31" rms="3.8274788856506348e-01" purity="3.4494884312152863e-02" nType="-99"/>
        </Node>
      </Node>
    </BinaryTree>
    <BinaryTree type="DecisionTree" boostWeight="1.0000000000000000e+00" itree="69">
      <Node pos="s" depth="0" NCoef="0" IVar="11" Cut="1.4769555664062500e+02" cType="1" res="1.6091255238279700e-03" rms="4.0206524729728699e-01" purity="4.9427869915962219e-01" nType="0">
        <Node pos="l" depth="1" NCoef="0" IVar="-1" Cut="0.0000000000000000e+00" cType="1" res="1.3532975688576698e-02" rms="4.0243864059448242e-01" purity="5.0107562541961670e-01" nType="-99"/>
        <Node pos="r" depth="1" NCoef="0" IVar="1" Cut="6.6005831956863403e-01" cType="1" res="-5.8610666543245316e-02" rms="3.8554537296295166e-01" purity="2.8459537029266357e-01" nType="0">
          <Node pos="l" depth="2" NCoef="0" IVar="-1" Cut="0.0000000000000000e+00" cType="1" res="-7.6806455850601196e-01" rms="3.8151904940605164e-01" purity="3.1637993454933167e-01" nType="-99"/>
          <Node pos="r" depth="2" NCoef="0" IVar="-1" Cut="0.0000000000000000e+00" cType="1" res="-1.1044627428054810e-01" rms="3.8298073410987854e-01" purity="2.6388388872146606e-01" nType="-99"/>
        </Node>
      </Node>
    </BinaryTree>
    <BinaryTree type="DecisionTree" boostWeight="1.0000000000000000e+00" itree="70">
      <Node pos="s" depth="0" NCoef="0" IVar="0" Cut="2.7694008350372314e+00" cType="1" res="3.0711323488503695e-03" rms="3.9903116226196289e-01" purity="5.0245571136474609e-01" nType="0">
        <Node pos="l" depth="1" NCoef="0" IVar="-1" Cut="0.0000000000000000e+00" cType="1" res="-2.2079089656472206e-02" rms="4.2660033702850342e-01" purity="5.2276337146759033e-01" nType="-99"/>
        <Node pos="r" depth="1" NCoef="0" IVar="2" Cut="2.3935945034027100e+00" cType="0" res="2.1238556131720543e-02" rms="3.3750420808792114e-01" purity="4.6246930956840515e-01" nType="0">
          <Node pos="l" depth="2" NCoef="0" IVar="-1" Cut="0.0000000000000000e+00" cType="1" res="1.2197767384350300e-02" rms="3.2956960797309875e-01" purity="5.4087036848068237e-01" nType="-99"/>
          <Node pos="r" depth="2" NCoef="0" IVar="-1" Cut="0.0000000000000000e+00" cType="1" res="1.6561025381088257e-01" rms="3.4356632828712463e-01" purity="3.9274853467941284e-01" nType="-99"/>
        </Node>
      </Node>
    </BinaryTree>
    <BinaryTree type="DecisionTree" boostWeight="1.0000000000000000e+00" itree="71">
      <Node pos="s" depth="0" NCoef="0" IVar="6" Cut="1.6521575927734375e+02" cType="1" res="1.6585342818871140e-03" rms="3.9844572544097900e-01" purity="5.0232821702957153e-01" nType="0">
        <Node pos="l" depth="1" NCoef="0" IVar="-1" Cut="0.0000000000000000e+00" cType="1" res="-1.4994567260146141e-02" rms="4.3406146764755249e-01" purity="6.1106926202774048e-01" nType="-99"/>
        <Node pos="r" depth="1" NCoef="0" IVar="0" Cut="1.6530394554138184e+00" cType="1" res="2.9631393030285835e-02" rms="1.7009024322032928e-01" purity="2.9720053076744080e-02" nType="0">
          <Node pos="l" depth="2" NCoef="0" IVar="-1" Cut="0.0000000000000000e+00" cType="1" res="7.4999997350666780e+29" rms="4.5486661791801453e-01" purity="2.9240342974662781e-01" nType="-99"/>
          <Node pos="r" depth="2" NCoef="0" IVar="-1" Cut="0.0000000000000000e+00" cType="1" res="8.2231515061820255e+30" rms="1.6375435888767242e-01" purity="2.7476105839014053e-02" nType="-99"/>
        </Node>
      </Node>
    </BinaryTree>
    <BinaryTree type="DecisionTree" boostWeight="1.0000000000000000e+00" itree="72">
      <Node pos="s" depth="0" NCoef="0" IVar="10" Cut="3.3495199680328369e-01" cType="1" res="1.9115020986646414e-03" rms="4.1008853912353516e-01" purity="5.0123715400695801e-01" nType="0">
        <Node pos="l" depth="1" NCoef="0" IVar="-1" Cut="0.0000000000000000e+00" cType="1" res="3.1749352812767029e-02" rms="3.9995205402374268e-01" purity="5.3473848104476929e-01" nType="-99"/>
        <Node pos="r" depth="1" NCoef="0" IVar="6" Cut="1.5888146972656250e+02" cType="1" res="-3.4405253827571869e-02" rms="4.5649832487106323e-01" purity="3.3070626854896545e-01" nType="0">
          <Node pos="l" depth="2" NCoef="0" IVar="-1" Cut="0.0000000000000000e+00" cType="1" res="-3.8132995367050171e-02" rms="4.8775193095207214e-01" purity="4.5031574368476868e-01" nType="-99"/>
          <Node pos="r" depth="2" NCoef="0" IVar="-1" Cut="0.0000000000000000e+00" cType="1" res="-7.6636582190127359e+30" rms="3.5504049062728882e-01" purity="2.3532861843705177e-02" nType="-99"/>
        </Node>
      </Node>
    </BinaryTree>
    <BinaryTree type="DecisionTree" boostWeight="1.0000000000000000e+00" itree="73">
      <Node pos="s" depth="0" NCoef="0" IVar="11" Cut="1.4769555664062500e+02" cType="1" res="1.4210727531462908e-03" rms="4.0010073781013489e-01" purity="5.0076144933700562e-01" nType="0">
        <Node pos="l" depth="1" NCoef="0" IVar="-1" Cut="0.0000000000000000e+00" cType="1" res="-1.0446347296237946e-03" rms="3.9918729662895203e-01" purity="5.0699937343597412e-01" nType="-99"/>
        <Node pos="r" depth="1" NCoef="0" IVar="4" Cut="1.6327981948852539e+00" cType="0" res="5.1398735493421555e-02" rms="4.2313772439956665e-01" purity="3.1665936112403870e-01" nType="0">
          <Node pos="l" depth="2" NCoef="0" IVar="-1" Cut="0.0000000000000000e+00" cType="1" res="6.4937472343444824e-01" rms="4.9134364724159241e-01" purity="6.1998271942138672e-01" nType="-99"/>
          <Node pos="r" depth="2" NCoef="0" IVar="-1" Cut="0.0000000000000000e+00" cType="1" res="-8.0425284802913666e-02" rms="3.7332066893577576e-01" purity="1.8359115719795227e-01" nType="-99"/>
        </Node>
      </Node>
    </BinaryTree>
    <BinaryTree type="DecisionTree" boostWeight="1.0000000000000000e+00" itree="74">
      <Node pos="s" depth="0" NCoef="0" IVar="10" Cut="-5.1713633537292480e-01" cType="0" res="7.2452460881322622e-04" rms="4.0111190080642700e-01" purity="5.0284647941589355e-01" nType="0">
        <Node pos="l" depth="1" NCoef="0" IVar="-1" Cut="0.0000000000000000e+00" cType="1" res="1.2282812036573887e-02" rms="4.0110287070274353e-01" purity="5.0772607326507568e-01" nType="-99"/>
        <Node pos="r" depth="1" NCoef="0" IVar="2" Cut="2.5431108474731445e+00" cType="0" res="-6.0797981917858124e-02" rms="3.9640608429908752e-01" purity="3.7985128164291382e-01" nType="0">
          <Node pos="l" depth="2" NCoef="0" IVar="-1" Cut="0.0000000000000000e+00" cType="1" res="-1.0451395511627197e+00" rms="3.9304128289222717e-01" purity="3.8625311851501465e-01" nType="-99"/>
          <Node pos="r" depth="2" NCoef="0" IVar="-1" Cut="0.0000000000000000e+00" cType="1" res="-1.0357371717691422e-01" rms="3.9166414737701416e-01" purity="3.7770494818687439e-01" nType="-99"/>
        </Node>
      </Node>
    </BinaryTree>
    <BinaryTree type="DecisionTree" boostWeight="1.0000000000000000e+00" itree="75">
      <Node pos="s" depth="0" NCoef="0" IVar="0" Cut="1.8843935728073120e+00" cType="0" res="-8.4628423792310059e-05" rms="3.9741247892379761e-01" purity="5.0228613615036011e-01" nType="0">
        <Node pos="l" depth="1" NCoef="0" IVar="-1" Cut="0.0000000000000000e+00" cType="1" res="1.9027939066290855e-02" rms="3.7310162186622620e-01" purity="5.3111433982849121e-01" nType="-99"/>
        <Node pos="r" depth="1" NCoef="0" IVar="0" Cut="1.3204050064086914e+00" cType="0" res="-1.8799828365445137e-02" rms="4.7216635942459106e-01" purity="4.0155169367790222e-01" nType="0">
          <Node pos="l" depth="2" NCoef="0" IVar="-1" Cut="0.0000000000000000e+00" cType="1" res="-1.4688359200954437e-01" rms="5.0084549188613892e-01" purity="5.0111645460128784e-01" nType="-99"/>
          <Node pos="r" depth="2" NCoef="0" IVar="-1" Cut="0.0000000000000000e+00" cType="1" res="1.9667932987213135e+00" rms="4.0090626478195190e-01" purity="1.9043727219104767e-01" nType="-99"/>
        </Node>
      </Node>
    </BinaryTree>
    <BinaryTree type="DecisionTree" boostWeight="1.0000000000000000e+00" itree="76">
      <Node pos="s" depth="0" NCoef="0" IVar="10" Cut="-5.2201557159423828e-01" cType="0" res="2.6207726914435625e-03" rms="4.0350422263145447e-01" purity="4.9928551912307739e-01" nType="0">
        <Node pos="l" depth="1" NCoef="0" IVar="-1" Cut="0.0000000000000000e+00" cType="1" res="2.5500089395791292e-03" rms="4.0351930260658264e-01" purity="5.0291091203689575e-01" nType="-99"/>
        <Node pos="r" depth="1" NCoef="0" IVar="2" Cut="2.5431108474731445e+00" cType="0" res="5.0571203231811523e-02" rms="4.0015780925750732e-01" purity="4.1138926148414612e-01" nType="0">
          <Node pos="l" depth="2" NCoef="0" IVar="-1" Cut="0.0000000000000000e+00" cType="1" res="4.7405198216438293e-01" rms="4.1177672147750854e-01" purity="4.8317605257034302e-01" nType="-99"/>
          <Node pos="r" depth="2" NCoef="0" IVar="-1" Cut="0.0000000000000000e+00" cType="1" res="-1.3424288481473923e-02" rms="3.8207900524139404e-01" purity="3.8294187188148499e-01" nType="-99"/>
        </Node>
      </Node>
    </BinaryTree>
    <BinaryTree type="DecisionTree" boostWeight="1.0000000000000000e+00" itree="77">
      <Node pos="s" depth="0" NCoef="0" IVar="6" Cut="1.7706251525878906e+02" cType="1" res="-3.1902648042887449e-03" rms="4.0084224939346313e-01" purity="4.9545773863792419e-01" nType="0">
        <Node pos="l" depth="1" NCoef="0" IVar="-1" Cut="0.0000000000000000e+00" cType="1" res="-2.7088234201073647e-02" rms="4.3304166197776794e-01" purity="5.8745938539505005e-01" nType="-99"/>
        <Node pos="r" depth="1" NCoef="0" IVar="9" Cut="1.9350247192382812e+02" cType="0" res="2.1966392174363136e-02" rms="1.4755658805370331e-01" purity="2.2110931575298309e-02" nType="0">
          <Node pos="l" depth="2" NCoef="0" IVar="-1" Cut="0.0000000000000000e+00" cType="1" res="7.4999997350666780e+29" rms="3.8318422436714172e-01" purity="1.7879936099052429e-01" nType="-99"/>
          <Node pos="r" depth="2" NCoef="0" IVar="-1" Cut="0.0000000000000000e+00" cType="1" res="4.9624123047696005e+30" rms="1.3897065818309784e-01" purity="1.9542111083865166e-02" nType="-99"/>
        </Node>
      </Node>
    </BinaryTree>
    <BinaryTree type="DecisionTree" boostWeight="1.0000000000000000e+00" itree="78">
      <Node pos="s" depth="0" NCoef="0" IVar="0" Cut="2.1212682723999023e+00" cType="0" res="4.8330905847251415e-03" rms="4.0206024050712585e-01" purity="5.0074106454849243e-01" nType="0">
        <Node pos="l" depth="1" NCoef="0" IVar="-1" Cut="0.0000000000000000e+00" cType="1" res="-1.3238837942481041e-02" rms="3.6643394827842712e-01" purity="5.1067340373992920e-01" nType="-99"/>
        <Node pos="r" depth="1" NCoef="0" IVar="0" Cut="1.4444830417633057e+00" cType="0" res="2.1343562752008438e-02" rms="4.6474876999855042e-01" purity="4.8087975382804871e-01" nType="0">
          <Node pos="l" depth="2" NCoef="0" IVar="-1" Cut="0.0000000000000000e+00" cType="1" res="1.2398889660835266e-01" rms="4.4980937242507935e-01" purity="5.7428109645843506e-01" nType="-99"/>
          <Node pos="r" depth="2" NCoef="0" IVar="-1" Cut="0.0000000000000000e+00" cType="1" res="-1.4040073156356812e+00" rms="4.9495890736579895e-01" purity="2.4988192319869995e-01" nType="-99"/>
        </Node>
      </Node>
    </BinaryTree>
    <BinaryTree type="DecisionTree" boostWeight="1.0000000000000000e+00" itree="79">
      <Node pos="s" depth="0" NCoef="0" IVar="0" Cut="1.1737697124481201e+00" cType="0" res="4.9404688179492950e-03" rms="4.0532866120338440e-01" purity="4.9725267291069031e-01" nType="0">
        <Node pos="l" depth="1" NCoef="0" IVar="-1" Cut="0.0000000000000000e+00" cType="1" res="8.5315015166997910e-03" rms="4.0610244870185852e-01" purity="5.1516103744506836e-01" nType="-99"/>
        <Node pos="r" depth="1" NCoef="0" IVar="8" Cut="1.7666947937011719e+02" cType="1" res="5.4709695279598236e-02" rms="3.8723191618919373e-01" purity="1.6259565949440002e-01" nType="0">
          <Node pos="l" depth="2" NCoef="0" IVar="-1" Cut="0.0000000000000000e+00" cType="1" res="9.5429210662841797e+00" rms="3.8094723224639893e-01" purity="1.6547422111034393e-01" nType="-99"/>
          <Node pos="r" depth="2" NCoef="0" IVar="-1" Cut="0.0000000000000000e+00" cType="1" res="-3.5039004516601562e+02" rms="4.6181413531303406e-01" purity="0.0000000000000000e+00" nType="-99"/>
        </Node>
      </Node>
    </BinaryTree>
    <BinaryTree type="DecisionTree" boostWeight="1.0000000000000000e+00" itree="80">
      <Node pos="s" depth="0" NCoef="0" IVar="8" Cut="2.3874365234375000e+02" cType="1" res="1.7293916316702962e-03" rms="4.0308213233947754e-01" purity="4.9784210324287415e-01" nType="0">
        <Node pos="l" depth="1" NCoef="0" IVar="-1" Cut="0.0000000000000000e+00" cType="1" res="3.5093335900455713e-03" rms="4.0305832028388977e-01" purity="5.0001245737075806e-01" nType="-99"/>
        <Node pos="r" depth="1" NCoef="0" IVar="0" Cut="1.7290072441101074e+00" cType="1" res="1.3461373746395111e-01" rms="3.8442450761795044e-01" purity="1.5044139325618744e-01" nType="0">
          <Node pos="l" depth="2" NCoef="0" IVar="-1" Cut="0.0000000000000000e+00" cType="1" res="4.5670512695312500e+03" rms="5.3698611259460449e-01" purity="4.7159314155578613e-01" nType="-99"/>
          <Node pos="r" depth="2" NCoef="0" IVar="-1" Cut="0.0000000000000000e+00" cType="1" res="1.2579860000000000e+07" rms="3.1407639384269714e-01" purity="8.9495539665222168e-02" nType="-99"/>
        </Node>
      </Node>
    </BinaryTree>
    <BinaryTree type="DecisionTree" boostWeight="1.0000000000000000e+00" itree="81">
      <Node pos="s" depth="0" NCoef="0" IVar="6" Cut="1.5803063964843750e+02" cType="1" res="-2.8516717720776796e-03" rms="4.0117073059082031e-01" purity="4.9701762199401855e-01" nType="0">
        <Node pos="l" depth="1" NCoef="0" IVar="-1" Cut="0.0000000000000000e+00" cType="1" res="-3.2155439257621765e-02" rms="4.3871143460273743e-01" purity="6.1716496944427490e-01" nType="-99"/>
        <Node pos="r" depth="1" NCoef="0" IVar="0" Cut="1.4476878643035889e+00" cType="1" res="2.5187559425830841e-02" rms="1.9461859762668610e-01" purity="3.1849183142185211e-02" nType="0">
          <Node pos="l" depth="2" NCoef="0" IVar="-1" Cut="0.0000000000000000e+00" cType="1" res="4.7046678088704870e+29" rms="5.1571136713027954e-01" purity="3.5866704583168030e-01" nType="-99"/>
          <Node pos="r" depth="2" NCoef="0" IVar="-1" Cut="0.0000000000000000e+00" cType="1" res="7.8333370024247472e+30" rms="1.9102865457534790e-01" purity="3.0461365357041359e-02" nType="-99"/>
        </Node>
      </Node>
    </BinaryTree>
    <BinaryTree type="DecisionTree" boostWeight="1.0000000000000000e+00" itree="82">
      <Node pos="s" depth="0" NCoef="0" IVar="10" Cut="3.3292883634567261e-01" cType="1" res="-3.4231287427246571e-03" rms="4.1074442863464355e-01" purity="4.9559152126312256e-01" nType="0">
        <Node pos="l" depth="1" NCoef="0" IVar="-1" Cut="0.0000000000000000e+00" cType="1" res="9.7788628190755844e-03" rms="4.0038755536079407e-01" purity="5.2646869421005249e-01" nType="-99"/>
        <Node pos="r" depth="1" NCoef="0" IVar="6" Cut="1.5888146972656250e+02" cType="1" res="-3.3548053354024887e-02" rms="4.5670011639595032e-01" purity="3.4505096077919006e-01" nType="0">
          <Node pos="l" depth="2" NCoef="0" IVar="-1" Cut="0.0000000000000000e+00" cType="1" res="-5.8302213437855244e-03" rms="4.8135024309158325e-01" purity="4.6617612242698669e-01" nType="-99"/>
          <Node pos="r" depth="2" NCoef="0" IVar="-1" Cut="0.0000000000000000e+00" cType="1" res="-8.9013679579294796e+30" rms="3.7122952938079834e-01" purity="2.6640664786100388e-02" nType="-99"/>
        </Node>
      </Node>
    </BinaryTree>
    <BinaryTree type="DecisionTree" boostWeight="1.0000000000000000e+00" itree="83">
      <Node pos="s" depth="0" NCoef="0" IVar="12" Cut="1.6029539489746094e+02" cType="1" res="1.6932305879890919e-03" rms="4.0347748994827271e-01" purity="4.9707904458045959e-01" nType="0">
        <Node pos="l" depth="1" NCoef="0" IVar="-1" Cut="0.0000000000000000e+00" cType="1" res="5.2996263839304447e-03" rms="4.0308502316474915e-01" purity="4.9735739827156067e-01" nType="-99"/>
        <Node pos="r" depth="1" NCoef="0" IVar="5" Cut="9.7721267700195312e+01" cType="1" res="2.2246706485748291e-01" rms="5.6961846351623535e-01" purity="3.1199827790260315e-01" nType="0">
          <Node pos="l" depth="2" NCoef="0" IVar="-1" Cut="0.0000000000000000e+00" cType="1" res="3.7633041381835938e+02" rms="5.8490788936614990e-01" purity="4.5249557495117188e-01" nType="-99"/>
          <Node pos="r" depth="2" NCoef="0" IVar="-1" Cut="0.0000000000000000e+00" cType="1" res="-9.5480209350585938e+01" rms="2.9810598492622375e-01" purity="0.0000000000000000e+00" nType="-99"/>
        </Node>
      </Node>
    </BinaryTree>
    <BinaryTree type="DecisionTree" boostWeight="1.0000000000000000e+00" itree="84">
      <Node pos="s" depth="0" NCoef="0" IVar="9" Cut="1.9779263305664062e+02" cType="1" res="1.3496200554072857e-03" rms="4.0143987536430359e-01" purity="5.0069993734359741e-01" nType="0">
        <Node pos="l" depth="1" NCoef="0" IVar="-1" Cut="0.0000000000000000e+00" cType="1" res="3.4480127505958080e-03" rms="4.0132296085357666e-01" purity="5.0138664245605469e-01" nType="-99"/>
        <Node pos="r" depth="1" NCoef="0" IVar="13" Cut="8.3122909545898438e+01" cType="0" res="2.0237423479557037e-01" rms="4.0176972746849060e-01" purity="2.0237423479557037e-01" nType="0">
          <Node pos="l" depth="2" NCoef="0" IVar="-1" Cut="0.0000000000000000e+00" cType="1" res="7.4999997350666780e+29" rms="4.9999555945396423e-01" purity="5.0210893154144287e-01" nType="-99"/>
          <Node pos="r" depth="2" NCoef="0" IVar="-1" Cut="0.0000000000000000e+00" cType="1" res="0.0000000000000000e+00" rms="0.0000000000000000e+00" purity="0.0000000000000000e+00" nType="-99"/>
        </Node>
      </Node>
    </BinaryTree>
    <BinaryTree type="DecisionTree" boostWeight="1.0000000000000000e+00" itree="85">
      <Node pos="s" depth="0" NCoef="0" IVar="6" Cut="2.1131535339355469e+02" cType="1" res="3.4581534564495087e-03" rms="4.0304785966873169e-01" purity="5.0336462259292603e-01" nType="0">
        <Node pos="l" depth="1" NCoef="0" IVar="-1" Cut="0.0000000000000000e+00" cType="1" res="2.6721765752881765e-03" rms="4.2296621203422546e-01" purity="5.6086194515228271e-01" nType="-99"/>
        <Node pos="r" depth="1" NCoef="0" IVar="3" Cut="1.0093796253204346e+00" cType="1" res="2.5753656402230263e-02" rms="1.5888524055480957e-01" purity="2.5830714032053947e-02" nType="0">
